Language model created by QuickLM on Fri Oct 18 09:39:47 EDT 2019
Copyright (c) 1996-2010 Carnegie Mellon University and Alexander I. Rudnicky

The model is in standard ARPA format, designed by Doug Paul while he was at MITRE.

The code that was used to produce this language model is available in Open Source.
Please visit http://www.speech.cs.cmu.edu/tools/ for more information

The (fixed) discount mass is 0.5. The backoffs are computed using the ratio method.
This model based on a corpus of 50 sentences and 26 words

\data\
ngram 1=26
ngram 2=59
ngram 3=84

\1-grams:
-1.0806 </s> -0.3010
-1.0806 <s> -0.2349
-2.1775 AC -0.2758
-1.8765 BEDROOM -0.2788
-1.9345 BONDHO -0.2811
-1.9345 CHARO -0.2634
-2.4786 DORJA -0.2996
-1.8765 DRAWING -0.2788
-2.4786 DUI -0.2788
-2.4786 EK -0.2788
-1.3025 ER -0.2642
-1.6035 FAN -0.2758
-1.9345 JALAO -0.2634
-2.7796 KHULO -0.2634
-1.8765 KITCHEN -0.2788
-1.3482 KORO -0.2634
-2.7796 LAGAO -0.2634
-2.3025 LIGH -0.2811
-1.4786 LIGHT -0.2649
-1.9345 NIBHAO -0.2634
-1.7796 OFF -0.2811
-1.7796 ON -0.2811
-1.6335 ROOM -0.2681
-2.4786 SECURITY -0.2864
-2.4786 TIN -0.2788
-2.1775 TV -0.2758

\2-grams:
-1.3979 <s> AC 0.0000
-1.0969 <s> BEDROOM 0.0000
-1.6990 <s> DORJA 0.0000
-1.0969 <s> DRAWING 0.0000
-1.5229 <s> FAN -0.0792
-1.0969 <s> KITCHEN 0.0000
-1.3010 <s> LIGHT -0.0414
-1.2218 <s> ROOM -0.1963
-1.6990 <s> SECURITY 0.0000
-1.3979 <s> TV 0.0000
-0.9031 AC BONDHO 0.0000
-0.9031 AC CHARO 0.0000
-0.9031 AC OFF 0.0000
-0.9031 AC ON 0.0000
-0.3010 BEDROOM ER -0.1027
-0.3010 BONDHO KORO 0.0000
-0.3010 CHARO </s> -0.3010
-0.6021 DORJA KHULO 0.0000
-0.6021 DORJA LAGAO 0.0000
-0.3010 DRAWING ER -0.2389
-0.3010 DUI ER -0.1856
-0.3010 EK ER -0.1856
-0.8751 ER FAN 0.0000
-0.6320 ER LIGHT -0.0414
-0.8751 ER ROOM -0.1549
-0.8751 FAN BONDHO 0.0000
-0.8751 FAN CHARO 0.0000
-1.0000 FAN OFF 0.0000
-0.8751 FAN ON 0.0000
-0.3010 JALAO </s> -0.3010
-0.3010 KHULO </s> -0.3010
-0.3010 KITCHEN ER -0.1027
-0.3010 KORO </s> -0.3010
-0.3010 LAGAO </s> -0.3010
-0.7782 LIGH NIBHAO 0.0000
-0.7782 LIGH OFF 0.0000
-0.7782 LIGH ON 0.0000
-1.6021 LIGHT BONDHO 0.0000
-1.6021 LIGHT CHARO 0.0000
-0.7570 LIGHT JALAO 0.0000
-0.8239 LIGHT NIBHAO 0.0000
-1.1249 LIGHT OFF 0.0000
-1.3010 LIGHT ON 0.0000
-0.3010 NIBHAO </s> -0.3010
-0.3010 OFF KORO 0.0000
-0.3010 ON KORO 0.0000
-1.1461 ROOM DUI 0.0000
-1.1461 ROOM EK 0.0000
-0.8451 ROOM FAN 0.0000
-0.9700 ROOM LIGH 0.0000
-1.4472 ROOM LIGHT -0.2175
-1.1461 ROOM TIN 0.0000
-0.6021 SECURITY OFF 0.0000
-0.6021 SECURITY ON 0.0000
-0.3010 TIN ER -0.1856
-0.9031 TV BONDHO 0.0000
-0.9031 TV CHARO 0.0000
-0.9031 TV OFF 0.0000
-0.9031 TV ON 0.0000

\3-grams:
-0.9031 <s> AC BONDHO
-0.9031 <s> AC CHARO
-0.9031 <s> AC OFF
-0.9031 <s> AC ON
-0.3010 <s> BEDROOM ER
-0.6021 <s> DORJA KHULO
-0.6021 <s> DORJA LAGAO
-0.3010 <s> DRAWING ER
-0.7782 <s> FAN BONDHO
-0.7782 <s> FAN CHARO
-0.7782 <s> FAN ON
-0.3010 <s> KITCHEN ER
-1.0000 <s> LIGHT BONDHO
-1.0000 <s> LIGHT CHARO
-1.0000 <s> LIGHT JALAO
-1.0000 <s> LIGHT NIBHAO
-1.0000 <s> LIGHT OFF
-0.7782 <s> ROOM DUI
-0.7782 <s> ROOM EK
-0.7782 <s> ROOM TIN
-0.6021 <s> SECURITY OFF
-0.6021 <s> SECURITY ON
-0.9031 <s> TV BONDHO
-0.9031 <s> TV CHARO
-0.9031 <s> TV OFF
-0.9031 <s> TV ON
-0.3010 AC BONDHO KORO
-0.3010 AC CHARO </s>
-0.3010 AC OFF KORO
-0.3010 AC ON KORO
-0.6021 BEDROOM ER FAN
-0.6021 BEDROOM ER LIGHT
-0.3010 BONDHO KORO </s>
-0.3010 DORJA KHULO </s>
-0.3010 DORJA LAGAO </s>
-0.3010 DRAWING ER ROOM
-0.3010 DUI ER LIGHT
-0.3010 EK ER LIGHT
-0.9031 ER FAN BONDHO
-0.9031 ER FAN CHARO
-0.9031 ER FAN OFF
-0.9031 ER FAN ON
-0.7482 ER LIGHT JALAO
-0.7482 ER LIGHT NIBHAO
-1.1461 ER LIGHT OFF
-1.1461 ER LIGHT ON
-0.6021 ER ROOM FAN
-0.7270 ER ROOM LIGH
-1.2041 ER ROOM LIGHT
-0.3010 FAN BONDHO KORO
-0.3010 FAN CHARO </s>
-0.3010 FAN OFF KORO
-0.3010 FAN ON KORO
-0.6021 KITCHEN ER FAN
-0.6021 KITCHEN ER LIGHT
-0.3010 LIGH NIBHAO </s>
-0.3010 LIGH OFF KORO
-0.3010 LIGH ON KORO
-0.3010 LIGHT BONDHO KORO
-0.3010 LIGHT CHARO </s>
-0.3010 LIGHT JALAO </s>
-0.3010 LIGHT NIBHAO </s>
-0.3010 LIGHT OFF KORO
-0.3010 LIGHT ON KORO
-0.3010 OFF KORO </s>
-0.3010 ON KORO </s>
-0.3010 ROOM DUI ER
-0.3010 ROOM EK ER
-0.9031 ROOM FAN BONDHO
-0.9031 ROOM FAN CHARO
-0.9031 ROOM FAN OFF
-0.9031 ROOM FAN ON
-0.7782 ROOM LIGH NIBHAO
-0.7782 ROOM LIGH OFF
-0.7782 ROOM LIGH ON
-0.3010 ROOM LIGHT JALAO
-0.3010 ROOM TIN ER
-0.3010 SECURITY OFF KORO
-0.3010 SECURITY ON KORO
-0.3010 TIN ER LIGHT
-0.3010 TV BONDHO KORO
-0.3010 TV CHARO </s>
-0.3010 TV OFF KORO
-0.3010 TV ON KORO

\end\
