Language model created by QuickLM on Fri Oct 18 10:55:10 EDT 2019
Copyright (c) 1996-2010 Carnegie Mellon University and Alexander I. Rudnicky

The model is in standard ARPA format, designed by Doug Paul while he was at MITRE.

The code that was used to produce this language model is available in Open Source.
Please visit http://www.speech.cs.cmu.edu/tools/ for more information

The (fixed) discount mass is 0.5. The backoffs are computed using the ratio method.
This model based on a corpus of 75 sentences and 25 words

\data\
ngram 1=25
ngram 2=61
ngram 3=92

\1-grams:
-1.0849 </s> -0.3010
-1.0849 <s> -0.2320
-1.9186 AC -0.2694
-2.3579 BATHROOM -0.2781
-2.2610 BATI -0.2699
-1.8139 BEDROOM -0.2781
-1.7047 BONDHO -0.2765
-2.9600 CHALU -0.2765
-2.0058 CHARO -0.2638
-2.0569 DINING -0.2781
-2.3579 DORJA -0.2914
-1.8808 DRAWING -0.2948
-1.2879 ER -0.2674
-1.5983 FAN -0.2689
-2.1149 JALAO -0.2638
-2.6590 KHULO -0.2638
-2.0569 KITCHEN -0.2781
-1.2610 KORO -0.2638
-1.5621 LIGHT -0.2705
-2.9600 NIBHAO -0.2638
-1.6590 OFF -0.2370
-1.7295 ON -0.2370
-1.8461 ROOM -0.2781
-2.6590 SECURITY -0.2830
-2.2610 TV -0.2694

\2-grams:
-1.6990 <s> AC -0.0726
-1.5740 <s> BATHROOM 0.0000
-1.5740 <s> BATI -0.0792
-1.0300 <s> BEDROOM 0.0000
-1.2730 <s> DINING 0.0000
-1.8751 <s> DORJA 0.0000
-1.0969 <s> DRAWING 0.0000
-1.3310 <s> FAN 0.0000
-1.2730 <s> KITCHEN 0.0000
-1.4771 <s> LIGHT 0.0000
-2.1761 <s> ROOM 0.0000
-1.8751 <s> SECURITY 0.0000
-1.4771 <s> TV 0.0000
-1.0414 AC BONDHO 0.0000
-0.8653 AC CHARO 0.0000
-0.8653 AC OFF -0.0792
-0.8653 AC ON -0.0483
-0.3010 BATHROOM ER -0.1971
-1.0000 BATI BONDHO 0.0000
-1.0000 BATI JALAO 0.0000
-1.0000 BATI NIBHAO 0.0000
-1.0000 BATI OFF -0.0792
-1.0000 BATI ON -0.2747
-0.3010 BEDROOM ER -0.0091
-0.3010 BONDHO KORO 0.0000
-0.3010 CHALU KORO 0.0000
-0.3010 CHARO </s> -0.3010
-0.3010 DINING ER -0.0913
-0.6021 DORJA BONDHO 0.0000
-0.6021 DORJA KHULO 0.0000
-0.3010 DRAWING ROOM 0.0000
-1.0700 ER AC 0.0000
-1.9731 ER BATI -0.2553
-1.6721 ER DORJA 0.0000
-0.7690 ER FAN -0.0185
-0.6721 ER LIGHT 0.0000
-0.8846 FAN BONDHO 0.0000
-1.6628 FAN CHALU 0.0000
-0.9638 FAN CHARO 0.0000
-0.8846 FAN OFF 0.0000
-0.9638 FAN ON -0.0483
-0.3010 JALAO </s> -0.3010
-0.3010 KHULO </s> -0.3010
-0.3010 KITCHEN ER -0.0913
-0.3010 KORO </s> -0.3010
-0.9208 LIGHT BONDHO 0.0000
-0.9208 LIGHT JALAO 0.0000
-0.8539 LIGHT OFF 0.0000
-0.9208 LIGHT ON -0.0483
-0.3010 NIBHAO </s> -0.3010
-1.0000 OFF </s> -0.3010
-0.3979 OFF KORO 0.0000
-1.2304 ON </s> -0.3010
-0.3554 ON KORO 0.0000
-0.3010 ROOM ER -0.0181
-0.6021 SECURITY OFF -0.2553
-0.6021 SECURITY ON -0.2747
-1.0000 TV BONDHO 0.0000
-1.0000 TV CHARO 0.0000
-0.6990 TV OFF 0.0000
-1.0000 TV ON -0.0483

\3-grams:
-0.7782 <s> AC CHARO
-0.7782 <s> AC OFF
-0.7782 <s> AC ON
-0.3010 <s> BATHROOM ER
-0.9031 <s> BATI BONDHO
-0.9031 <s> BATI JALAO
-0.9031 <s> BATI OFF
-0.9031 <s> BATI ON
-0.3010 <s> BEDROOM ER
-0.3010 <s> DINING ER
-0.6021 <s> DORJA BONDHO
-0.6021 <s> DORJA KHULO
-0.3010 <s> DRAWING ROOM
-0.8451 <s> FAN BONDHO
-1.1461 <s> FAN CHALU
-1.1461 <s> FAN CHARO
-0.8451 <s> FAN OFF
-1.1461 <s> FAN ON
-0.3010 <s> KITCHEN ER
-1.0000 <s> LIGHT BONDHO
-1.0000 <s> LIGHT JALAO
-0.6990 <s> LIGHT OFF
-1.0000 <s> LIGHT ON
-0.3010 <s> ROOM ER
-0.6021 <s> SECURITY OFF
-0.6021 <s> SECURITY ON
-1.0000 <s> TV BONDHO
-1.0000 <s> TV CHARO
-0.6990 <s> TV OFF
-1.0000 <s> TV ON
-0.3010 AC BONDHO KORO
-0.3010 AC CHARO </s>
-0.3010 AC OFF KORO
-0.3010 AC ON KORO
-0.3010 BATHROOM ER LIGHT
-0.3010 BATI BONDHO KORO
-0.3010 BATI JALAO </s>
-0.3010 BATI NIBHAO </s>
-0.3010 BATI OFF KORO
-0.3010 BATI ON </s>
-0.8451 BEDROOM ER AC
-1.1461 BEDROOM ER DORJA
-0.8451 BEDROOM ER FAN
-0.8451 BEDROOM ER LIGHT
-0.3010 BONDHO KORO </s>
-0.3010 CHALU KORO </s>
-0.6021 DINING ER FAN
-0.6021 DINING ER LIGHT
-0.3010 DORJA BONDHO KORO
-0.3010 DORJA KHULO </s>
-0.3010 DRAWING ROOM ER
-0.9031 ER AC BONDHO
-0.9031 ER AC CHARO
-0.9031 ER AC OFF
-0.9031 ER AC ON
-0.3010 ER BATI NIBHAO
-0.6021 ER DORJA BONDHO
-0.6021 ER DORJA KHULO
-0.9031 ER FAN BONDHO
-0.9031 ER FAN CHARO
-0.9031 ER FAN OFF
-0.9031 ER FAN ON
-0.9031 ER LIGHT BONDHO
-0.9031 ER LIGHT JALAO
-0.9031 ER LIGHT OFF
-0.9031 ER LIGHT ON
-0.3010 FAN BONDHO KORO
-0.3010 FAN CHALU KORO
-0.3010 FAN CHARO </s>
-1.0792 FAN OFF </s>
-0.3802 FAN OFF KORO
-0.3010 FAN ON KORO
-0.6021 KITCHEN ER FAN
-0.6021 KITCHEN ER LIGHT
-0.3010 LIGHT BONDHO KORO
-0.3010 LIGHT JALAO </s>
-1.1461 LIGHT OFF </s>
-0.3680 LIGHT OFF KORO
-0.3010 LIGHT ON KORO
-0.3010 OFF KORO </s>
-0.3010 ON KORO </s>
-0.8129 ROOM ER AC
-1.4150 ROOM ER BATI
-0.8129 ROOM ER FAN
-0.8129 ROOM ER LIGHT
-0.3010 SECURITY OFF </s>
-0.3010 SECURITY ON </s>
-0.3010 TV BONDHO KORO
-0.3010 TV CHARO </s>
-0.6021 TV OFF </s>
-0.6021 TV OFF KORO
-0.3010 TV ON KORO

\end\
