#############################################################################
## Copyright (c) 1996, Carnegie Mellon University, Cambridge University,
## Ronald Rosenfeld and Philip Clarkson
## Version 3, Copyright (c) 2006, Carnegie Mellon University 
## Contributors includes Wen Xu, Ananlada Chotimongkol, 
## David Huggins-Daines, Arthur Chan and Alan Black 
#############################################################################
=============================================================================
===============  This file was produced by the CMU-Cambridge  ===============
===============     Statistical Language Modeling Toolkit     ===============
=============================================================================
This is a 3-gram language model, based on a vocabulary of 4791 words,
  which begins "A", "Aa", "Aabuke"...
This is a CLOSED-vocabulary model
  (OOVs eliminated from training data and are forbidden in test data)
Good-Turing discounting was applied.
1-gram frequency of frequency : 2424 
2-gram frequency of frequency : 6441 437 77 19 5 4 1 
3-gram frequency of frequency : 7000 279 32 2 2 0 1 
1-gram discounting ratios : 0.65 
2-gram discounting ratios : 0.13 0.26 0.33 0.33 0.96 0.29 
3-gram discounting ratios : 0.08 0.17 0.08 
This file is in the ARPA-standard format introduced by Doug Paul.

p(wd3|wd1,wd2)= if(trigram exists)           p_3(wd1,wd2,wd3)
                else if(bigram w1,w2 exists) bo_wt_2(w1,w2)*p(wd3|wd2)
                else                         p(wd3|w2)

p(wd2|wd1)= if(bigram exists) p_2(wd1,wd2)
            else              bo_wt_1(wd1)*p_1(wd2)

All probs and back-off weights (bo_wt) are given in log10 form.

Data formats:

Beginning of data mark: \data\
ngram 1=nr            # number of 1-grams
ngram 2=nr            # number of 2-grams
ngram 3=nr            # number of 3-grams

\1-grams:
p_1     wd_1 bo_wt_1
\2-grams:
p_2     wd_1 wd_2 bo_wt_2
\3-grams:
p_3     wd_1 wd_2 wd_3 

end of data mark: \end\

\data\
ngram 1=4791
ngram 2=6985
ngram 3=7317

\1-grams:
-4.0702 A	-0.0628
-3.5847 Aa	-0.0627
-4.0702 Aabuke	-0.0622
-3.0407 Aaj	-0.0794
-4.0702 Aaji	-0.0628
-4.0702 Aajo	-0.0628
-4.0702 Aak	-0.0628
-3.5847 Aamar	-0.0627
-3.4086 Aar	-0.0621
-4.0702 Aash	-0.0589
-4.0702 Aayna	-0.0625
-4.0702 Abar	-0.0628
-3.5847 Abaro	-0.1318
-4.0702 Abdul	-0.0628
-4.0702 Adhar	-0.0626
-4.0702 Adho	-0.0628
-4.0702 Age	-0.0628
-4.0702 Ageto	-0.0625
-4.0702 Agun	0.0000
-3.0407 Ai	-0.1263
-3.1868 Aj	-0.0845
-4.0702 Ajh	-0.0628
-3.4086 Aji	-0.1077
-3.5847 Ajj	-0.0617
-4.0702 Ajjo	-0.0622
-3.5847 Ajo	-0.0626
-3.5847 Akash	-0.0624
-3.5847 Akasher	-0.0613
-4.0702 Aki	0.0000
-4.0702 Akla	-0.0627
-4.0702 Akokhono	-0.0607
-3.5847 Akto	-0.1326
-4.0702 Album	-0.0628
-4.0702 Alim	0.0000
-4.0702 Alloy	0.0000
-3.5847 Alo	-0.0624
-3.5847 Alokito	-0.1325
-4.0702 Amaar	-0.0628
-4.0702 Amai	-0.0624
-4.0702 Amakeo	-0.0622
-4.0702 Amao	-0.0622
-2.6070 Amar	-0.0704
-4.0702 Amateur	-0.0628
-3.2837 Amay	-0.0627
-2.5635 Ami	-0.0817
-3.5847 Amol	-0.0580
-3.1868 Amra	-0.0884
-4.0702 Andho	-0.0601
-4.0702 Anek	-0.0622
-4.0702 Anik	-0.0623
-4.0702 Anmoone	0.0000
-4.0702 Antare	-0.0628
-4.0702 Apon	-0.0627
-3.5847 Ar	-0.0621
-4.0702 Aro	-0.0626
-4.0702 Art	-0.0627
-4.0702 Arun	-0.0628
-3.4086 Asa	-0.1080
-4.0702 Asbe	-0.0627
-4.0702 Ashbo	-0.0627
-3.5847 Ashi	-0.0628
-3.5847 Asho	-0.0619
-4.0702 Australia	-0.0628
-4.0702 Badha	-0.0603
-4.0702 Badol	0.0000
-3.5847 Baje	-0.0628
-3.5847 Bajlo	-0.1306
-4.0702 Bakey	-0.0618
-4.0702 Bali	-0.0622
-4.0702 Bangladesh	-0.0627
-4.0702 Barale	-0.0628
-4.0702 BarandaY	0.0000
-4.0702 Baranday	0.0000
-4.0702 Barebar	-0.0614
-4.0702 Bari	0.0000
-4.0702 Barle	-0.0627
-4.0702 Basbo	-0.0627
-4.0702 Batashe	-0.0619
-4.0702 Batha	0.0000
-4.0702 Bather	-0.0628
-4.0702 Bedona	0.0000
-4.0702 Bela	0.0000
-4.0702 Bhabi	-0.0628
-4.0702 Bhai	-0.0589
-3.4086 Bhaire	-0.0579
-3.5847 Bhaiyer	-0.0616
-3.5847 Bhalo	-0.0628
-4.0702 Bhalobasha	-0.0624
-4.0702 Bhalobashai	0.0000
-4.0702 Bhalobashar	0.0000
-4.0702 Bhalobasher	0.0000
-3.1868 Bhalobashi	-0.1551
-4.0702 Bhalobasho	-0.0624
-4.0702 Bhalobeshe	-0.0626
-4.0702 Bhange	-0.0628
-4.0702 Bhashao	-0.0628
-4.0702 Bhatir	-0.0627
-4.0702 Bhebechi	-0.0622
-4.0702 Bhenge	-0.0628
-4.0702 Bheshe	-0.0626
-4.0702 Bhishon	-0.0628
-4.0702 Bhoreo	-0.0625
-4.0702 Bhubon	0.0000
-4.0702 Bhuja	-0.0628
-4.0702 Bhujaitey	0.0000
-4.0702 Bhujhi	-0.0584
-3.5847 Bhul	-0.0618
-3.5847 Bhule	-0.1324
-4.0702 Bhulitey	0.0000
-4.0702 Bidai	0.0000
-4.0702 Bischeder	0.0000
-4.0702 Bishad	-0.0594
-4.0702 Bishnu	-0.0628
-3.5847 Bishshoye	-0.1328
-4.0702 Bochor	-0.0627
-3.4086 Bojhe	-0.1725
-3.5847 Bolbo	-0.1289
-3.4086 Bole	-0.1043
-4.0702 Boley	0.0000
-4.0702 Boli	-0.0622
-3.5847 Bolo	-0.0581
-4.0702 Bon	-0.0627
-4.0702 Bona	0.0000
-4.0702 Bone	-0.0625
-3.5847 Boro	-0.0628
-4.0702 Bortoman	-0.0628
-4.0702 Boshey	-0.0628
-4.0702 Brishti	-0.0626
-3.5847 Brishty	-0.0627
-4.0702 Buk	-0.0626
-3.5847 Buke	-0.0625
-4.0702 Buker	0.0000
-4.0702 Bukey	-0.0621
-4.0702 Buliye	-0.0628
-3.5847 Calling	-0.1294
-4.0702 Chad	-0.0623
-3.2837 Chader	-0.0939
-4.0702 Chai	-0.0628
-4.0702 Chaibo	-0.0593
-4.0702 Chaijey	0.0000
-4.0702 Chaile	-0.0619
-3.1076 Chaina	-0.1314
-4.0702 Chander	-0.0627
-4.0702 Charte	-0.0617
-4.0702 Chawnira	-0.0628
-3.5847 Chena	-0.0627
-4.0702 Cheyeche	-0.0617
-4.0702 Chhilam	-0.0618
-4.0702 Chilo	-0.0628
-4.0702 Chinte	-0.0624
-4.0702 Chiro	-0.0628
-4.0702 Chirodin	-0.0617
-3.5847 Chokh	-0.0628
-4.0702 Chokhe	0.0000
-3.2837 Chokher	-0.0618
-4.0702 Chol	-0.0628
-4.0702 Cholar	0.0000
-4.0702 Cholisher	0.0000
-4.0702 Cholonai	-0.0628
-4.0702 Chondo	0.0000
-4.0702 Chondona	0.0000
-4.0702 Choore	0.0000
-4.0702 Chootein	-0.0626
-3.5847 Choto	-0.0627
-3.5847 Chotto	-0.0584
-4.0702 Choturdik	0.0000
-4.0702 Chowa	0.0000
-3.4086 Coffee	-0.1725
-4.0702 Currently	-0.0628
-4.0702 D	-0.0627
-4.0702 Dakbo	0.0000
-4.0702 Dam	0.0000
-4.0702 Daria	-0.0628
-4.0702 Darkana	-0.0627
-4.0702 Daroan	-0.0628
-4.0702 Debe	-0.0628
-4.0702 Debo	-0.0625
-4.0702 Deelam	0.0000
-4.0702 Deen	-0.0628
-4.0702 Deene	0.0000
-4.0702 Deho	-0.0628
-3.5847 Dekha	-0.0627
-4.0702 Dekhbo	-0.0628
-4.0702 Dekhe	-0.0627
-3.4086 Dekhi	-0.0623
-4.0702 Dekho	-0.0626
-4.0702 Dewana	0.0000
-4.0702 Dey	-0.0624
-4.0702 Dhankhet	-0.0628
-4.0702 Dhir	-0.0626
-4.0702 DhoSh	-0.0593
-3.4086 Dibo	-0.0606
-4.0702 Dighir	-0.0628
-4.0702 Dike	-0.0626
-4.0702 Dilam	-0.0625
-4.0702 Dile	-0.0622
-3.5847 Din	-0.0625
-4.0702 Dine	-0.0628
-4.0702 Diner	-0.0627
-4.0702 Dite	0.0000
-4.0702 Diye	-0.0626
-4.0702 Dole	-0.0612
-4.0702 Doore	-0.0622
-4.0702 Doraitey	0.0000
-4.0702 Dosh	-0.0628
-4.0702 Doshomir	-0.0628
-4.0702 Doya	-0.0589
-4.0702 Duar	-0.0627
-4.0702 Dub	0.0000
-4.0702 Dudhwala	-0.0626
-4.0702 Dukher	-0.0625
-4.0702 Dukkho	-0.0618
-4.0702 Dupur	-0.0628
-3.2837 Dur	-0.0962
-4.0702 Dure	-0.0627
-4.0702 Durey	0.0000
-4.0702 Duyar	-0.0627
-3.1868 E	-0.0876
-4.0702 Ebare	-0.0628
-2.8066 Ei	-0.0604
-3.1868 Ek	-0.0879
-4.0702 Eka	0.0000
-4.0702 Ekbar	-0.0622
-3.5847 Ekhono	-0.0572
-3.5847 Eki	-0.0624
-4.0702 Ekshomoy	-0.0628
-3.5847 Ekta	-0.0625
-4.0702 Ekti	-0.0628
-4.0702 Ektu	0.0000
-4.0702 Ele	-0.0628
-3.5847 Emon	-0.0599
-3.5847 Er	-0.1326
-4.0702 Eri	-0.0627
-3.1076 Eto	-0.1140
-4.0702 Etota	-0.0625
-4.0702 Exercise	-0.0628
-4.0702 Fagooner	-0.0627
-4.0702 Film	0.0000
-4.0702 Fire	-0.0613
-4.0702 Firey	-0.0585
-4.0702 Firitey	0.0000
-4.0702 Gaaner	-0.0628
-4.0702 Gaantake	-0.0624
-4.0702 Gaco	0.0000
-4.0702 Gang	-0.0590
-4.0702 Gelo	-0.0607
-4.0702 Gharar	-0.0628
-4.0702 Ghonale	-0.0626
-4.0702 Ghora	0.0000
-3.5847 Ghore	-0.0628
-4.0702 Ghum	-0.0603
-4.0702 Gohono	0.0000
-4.0702 Golpe	0.0000
-4.0702 Gopono	-0.0628
-3.5847 Gorom	-0.0624
-4.0702 Grand	-0.0594
-4.0702 Grihina	0.0000
-4.0702 Haarano	-0.0627
-4.0702 Haath	0.0000
-3.4086 Hai	-0.0625
-4.0702 Haralam	0.0000
-3.5847 Hariye	-0.1325
-4.0702 Hasbe	-0.0627
-4.0702 Hasha	-0.0628
-4.0702 Hashir	-0.0627
-4.0702 Hashle	-0.0621
-4.0702 Hasinar	-0.0628
-4.0702 Hath	-0.0628
-4.0702 Hathe	0.0000
-4.0702 Hawa	-0.0627
-4.0702 Hay	-0.0625
-4.0702 Haygo	-0.0626
-4.0702 Hayre	-0.0626
-4.0702 Hazar	0.0000
-4.0702 Hire	-0.0617
-4.0702 Hobe	-0.0626
-4.0702 Hoi	-0.0628
-3.5847 Hoiley	-0.0628
-4.0702 Hok	-0.0624
-3.5847 Holo	-0.0627
-4.0702 Hotaht	-0.0601
-4.0702 Hote	0.0000
-4.0702 Hoye	0.0000
-4.0702 Hridoi	-0.0628
-3.5847 Hridoy	-0.0589
-3.5847 Hridoyer	-0.0617
-4.0702 Hridoyo	-0.0627
-4.0702 Internet	-0.0627
-4.0702 Ispringer	-0.0628
-4.0702 Ja	-0.0627
-4.0702 Jaal	-0.0622
-3.1868 Jabo	-0.1165
-4.0702 Jaccho	-0.0622
-4.0702 Jadu	0.0000
-4.0702 Jai	-0.0627
-4.0702 Jaiba	-0.0613
-4.0702 Jake	-0.0628
-4.0702 Jamini	-0.0628
-4.0702 Janaaaaaalam	0.0000
-3.4086 Jani	-0.1037
-4.0702 Janina	-0.0625
-3.5847 Janiye	-0.1328
-4.0702 Jano	0.0000
-3.4086 Jao	-0.0621
-4.0702 Jare	0.0000
-3.5847 Jate	-0.1318
-4.0702 Jawa	0.0000
-4.0702 Jay	0.0000
-3.0407 Je	-0.1224
-4.0702 Jege	-0.0628
-4.0702 Jeno	-0.0627
-4.0702 Jhale	0.0000
-4.0702 Jhore	-0.0628
-3.4086 Jhoro	-0.0623
-4.0702 Jhorojoro	-0.0628
-3.5847 Jibon	-0.0628
-4.0702 Jibono	0.0000
-4.0702 Jochonar	-0.0596
-3.1076 Jodi	-0.0608
-3.5847 Jokhon	-0.0628
-4.0702 Jol	-0.0627
-4.0702 Jolbo	0.0000
-4.0702 Jole	-0.0628
-4.0702 Jolei	-0.0628
-4.0702 Jonmo	-0.0625
-4.0702 Jonne	-0.0625
-4.0702 Jonno	-0.0625
-3.2837 Joto	-0.0612
-4.0702 Joyer	-0.0626
-4.0702 Juthi	-0.0628
-4.0702 Kaachete	-0.0628
-3.5847 Kache	-0.1325
-4.0702 Kade	-0.0625
-3.5847 Kagojer	-0.0628
-4.0702 Kake	-0.0628
-4.0702 Kal	-0.0618
-4.0702 Kanamachi	-0.0627
-4.0702 Kanna	-0.0626
-4.0702 Karo	-0.0628
-4.0702 Karon	-0.0615
-4.0702 Katlo	-0.0628
-3.5847 Kay	-0.0617
-3.5847 Ke	-0.0626
-4.0702 Kemon	-0.0619
-3.1076 Keno	-0.0836
-4.0702 Keo	-0.0628
-4.0702 Kere	-0.0626
-4.0702 Khan	0.0000
-4.0702 Kharap	-0.0621
-4.0702 Khela	-0.0628
-4.0702 Kheyal	-0.0628
-4.0702 Khobir	-0.0628
-3.5847 Khola	-0.1324
-3.5847 Khone	-0.0621
-4.0702 Khonik	-0.0628
-4.0702 Khoniker	-0.0614
-4.0702 Khoshto	-0.0628
-4.0702 Khub	0.0000
-4.0702 Khujhe	-0.0624
-2.8444 Ki	-0.0818
-3.4086 Kichu	-0.0627
-4.0702 Klantho	0.0000
-4.0702 Klanto	0.0000
-3.4086 Kobe	-0.1081
-4.0702 Kobi	-0.0628
-4.0702 Kobitay	-0.0628
-4.0702 Koilja	-0.0593
-3.5847 Kokhono	-0.0628
-4.0702 Kolpona	-0.0628
-4.0702 Kon	-0.0627
-4.0702 Kono	-0.0618
-4.0702 Kopale	-0.0622
-3.5847 Kore	-0.0623
-4.0702 Korle	-0.0628
-4.0702 Korlo	-0.0627
-4.0702 Koruna	-0.0628
-3.5847 Kotha	-0.0606
-4.0702 Kothae	-0.0593
-4.0702 Kothai	0.0000
-3.5847 Kothaye	-0.1327
-3.5847 Koto	-0.0624
-4.0702 Kotodin	-0.0628
-4.0702 Kotoi	0.0000
-4.0702 Kotosoto	-0.0626
-4.0702 Krishnokoli	-0.0628
-4.0702 Kul	-0.0608
-4.0702 Laage	0.0000
-4.0702 Lagaise	0.0000
-4.0702 Lajj	-0.0627
-4.0702 Lal	-0.0628
-4.0702 Lata	0.0000
-4.0702 Likheci	-0.0625
-4.0702 Likhho	-0.0627
-4.0702 M0n	-0.0627
-4.0702 Madol	-0.0627
-3.5847 Majhe	-0.1318
-4.0702 Majhrater	-0.0622
-4.0702 Majumdar	0.0000
-4.0702 Mangeshkar	0.0000
-4.0702 Matlo	-0.0603
-4.0702 Maya	-0.0628
-4.0702 Megh	-0.0628
-4.0702 Megha	-0.0628
-3.4086 Meghe	-0.0624
-4.0702 Meghla	-0.0628
-4.0702 Melbey	-0.0628
-3.5847 Melena	-0.1327
-4.0702 Methopothe	-0.0628
-4.0702 Meyeta	-0.0627
-4.0702 Milon	-0.0627
-4.0702 Mishe	-0.0628
-4.0702 Mitthe	-0.0627
-4.0702 Moder	-0.0628
-4.0702 Mohd	-0.0628
-4.0702 Mohomeghe	-0.0625
-4.0702 Mohona	0.0000
-4.0702 Moidul	-0.0628
-2.6553 Mon	-0.0741
-3.2837 Mone	-0.0611
-3.0407 Moner	-0.0577
-4.0702 Mongol	-0.0628
-4.0702 Monpura	0.0000
-4.0702 Monrey	0.0000
-4.0702 Montre	-0.0619
-4.0702 Moon	-0.0625
-4.0702 Mor	-0.0628
-4.0702 Mora	-0.0628
-4.0702 Moto	-0.0628
-3.5847 Moyna	-0.1327
-4.0702 Muchhe	-0.0627
-4.0702 Mukhoro	-0.0628
-3.1076 Na	-0.1101
-4.0702 Nabino	-0.0628
-4.0702 Nah	-0.0618
-4.0702 Nahoy	-0.0621
-4.0702 Naiba	-0.0627
-4.0702 Nam	0.0000
-4.0702 Name	0.0000
-4.0702 Nao	-0.0628
-2.9315 Nare	-0.9995
-4.0702 Narir	-0.0628
-4.0702 Nato	0.0000
-4.0702 Nidoy	-0.0628
-4.0702 Nijer	-0.0628
-4.0702 Nijhum	-0.0627
-3.4086 Nil	-0.1074
-4.0702 Nimlo	-0.0590
-4.0702 Nimontron	0.0000
-4.0702 Nishpran	-0.0627
-4.0702 Nitol	-0.0627
-4.0702 Niye	-0.0628
-4.0702 Nodimata	-0.0628
-3.5847 Noi	-0.0627
-4.0702 Noile	-0.0628
-4.0702 Notun	-0.0628
-4.0702 Noyon	-0.0626
-4.0702 Noyono	0.0000
-3.1076 O	-0.1028
-4.0702 Obhiman	-0.0623
-4.0702 Obohela	0.0000
-4.0702 Obonitho	-0.0628
-4.0702 Oder	-0.0628
-4.0702 Officer	-0.0628
-3.4086 Ogo	-0.1075
-3.5847 Oh	-0.0628
-3.4086 Ohe	-0.0579
-3.1076 Oi	-0.0842
-4.0702 Ojon	0.0000
-4.0702 Oke	-0.0627
-4.0702 Olpo	0.0000
-4.0702 Ondhokare	-0.0625
-3.5847 Ongikar	-0.1294
-4.0702 Onno	0.0000
-4.0702 Onurager	-0.0628
-4.0702 Oohhh	-0.0627
-4.0702 Ooo	-0.0626
-4.0702 Open	-0.0628
-4.0702 Oporosho	-0.0628
-4.0702 Ora	-0.0628
-4.0702 Original	-0.0627
-4.0702 Ornob	0.0000
-4.0702 Osman	0.0000
-4.0702 Paate	0.0000
-3.5847 Pabo	-0.1327
-3.5847 Pagol	-0.0619
-4.0702 Pajor	-0.0627
-4.0702 Paner	-0.0628
-4.0702 Parlam	-0.0628
-4.0702 Pathoreo	-0.0628
-4.0702 Pathshala	-0.0628
-4.0702 Pawa	0.0000
-4.0702 Payel	-0.0627
-4.0702 Periye	-0.0610
-4.0702 Pete	-0.0628
-4.0702 Peyo	-0.0589
-4.0702 Phire	-0.0622
-4.0702 Phutao	-0.0628
-4.0702 Pich0n	-0.0627
-4.0702 Pichon	-0.0627
-4.0702 Poda	-0.0628
-4.0702 Polok	-0.0589
-4.0702 Pora	-0.0624
-4.0702 Porbe	-0.0619
-4.0702 Poribesh	-0.0627
-4.0702 Poriiye	0.0000
-4.0702 Poth	-0.0628
-4.0702 Pothe	0.0000
-4.0702 Praan	-0.0626
-3.4086 Pran	-0.1725
-3.4086 Prem	-0.0609
-4.0702 Prithibi	-0.0626
-3.5847 Prithibir	-0.0621
-4.0702 Prithiebi	-0.0622
-4.0702 Prodeep	-0.0628
-4.0702 Prokop	-0.0627
-4.0702 Prothom	0.0000
-3.5847 Protidin	-0.0590
-4.0702 Protidine	-0.0627
-4.0702 Prova	-0.0627
-4.0702 Purey	-0.0628
-4.0702 Raage	0.0000
-4.0702 Raat	-0.0626
-4.0702 Raate	0.0000
-4.0702 Raater	0.0000
-4.0702 Rai	-0.0596
-4.0702 Raja	-0.0628
-4.0702 Rajbarite	-0.0622
-4.0702 Rajdhani	-0.0627
-4.0702 Rakhbo	0.0000
-4.0702 Rakhhi	-0.0628
-4.0702 Rakhi	-0.0628
-4.0702 Ranga	-0.0628
-3.5847 Rani	-0.1327
-4.0702 Rat	-0.0624
-4.0702 Rate	-0.0613
-4.0702 Ray	0.0000
-3.5847 Re	-0.0626
-4.0702 Rekho	-0.0621
-4.0702 Ridoyer	-0.0620
-4.0702 Robe	-0.0622
-4.0702 Roibo	0.0000
-4.0702 Rokte	-0.0628
-4.0702 Roma	-0.0628
-4.0702 Ronger	-0.0628
-4.0702 Roode	-0.0627
-4.0702 Roshero	-0.0628
-4.0702 Roy	-0.0627
-4.0702 Royecho	-0.0628
-4.0702 Runu	-0.0628
-3.5847 Rupoli	-0.0624
-4.0702 Salesman	-0.0628
-4.0702 Sara	-0.0628
-4.0702 Saradin	0.0000
-4.0702 Sathe	0.0000
-4.0702 Savar	-0.0624
-3.2837 Se	-0.0961
-4.0702 Sei	-0.0628
-4.0702 Sekhane	-0.0627
-4.0702 Shaate	0.0000
-4.0702 Shaatti	-0.0628
-4.0702 Shada	-0.0627
-4.0702 Shadher	-0.0628
-3.5847 Shal	-0.1327
-3.5847 Shara	-0.0627
-4.0702 Sharadin	-0.0628
-4.0702 Shathee	-0.0628
-3.5847 She	-0.0602
-3.0407 Shei	-0.0995
-4.0702 Shema	-0.0628
-4.0702 Sher	-0.0627
-3.4086 Shesh	-0.0594
-4.0702 Sheshe	-0.0627
-4.0702 Shey	-0.0628
-4.0702 Shilpi	0.0000
-4.0702 Shimaheen	-0.0628
-4.0702 Shimana	0.0000
-4.0702 Shishura	-0.0628
-4.0702 Shitol	-0.0628
-4.0702 Shobi	-0.0627
-4.0702 Shobkichu	-0.0617
-3.5847 Shobuj	-0.0627
-4.0702 Shohoj	0.0000
-4.0702 Shoite	-0.0628
-4.0702 Shojotone	-0.0628
-3.5847 Shokhi	-0.0581
-3.5847 Shomoy	-0.0585
-3.5847 Shona	-0.0627
-4.0702 Shonali	-0.0627
-4.0702 Shonaro	-0.0628
-4.0702 Shondha	0.0000
-4.0702 Shopne	-0.0627
-3.4086 Shopno	-0.0616
-4.0702 Shotyi	-0.0628
-2.9315 Shudhu	-0.0714
-4.0702 Shudju	-0.0628
-4.0702 Shujon	-0.0628
-4.0702 Shuke	-0.0628
-3.4086 Shukhe	-0.1081
-4.0702 Shultana	-0.0628
-4.0702 Shunle	-0.0620
-4.0702 Shunte	-0.0626
-4.0702 Shure	-0.0628
-4.0702 Shurjo	-0.0628
-4.0702 Sinduriya	-0.0623
-3.5847 Singer	-0.0628
-3.2837 Sob	-0.0624
-4.0702 Sondha	0.0000
-4.0702 Sopno	-0.0627
-4.0702 Sraboner	0.0000
-4.0702 Srishto	-0.0628
-4.0702 Srote	0.0000
-4.0702 Srrote	-0.0628
-3.2837 Sudhu	-0.1417
-4.0702 Sujatai	-0.0614
-4.0702 Suno	-0.0624
-4.0702 Surjer	-0.0624
-4.0702 Swopner	-0.0622
-4.0702 Swopno	-0.0627
-4.0702 Ta	0.0000
-3.4086 Taar	-0.0627
-4.0702 Tabil	-0.0590
-4.0702 Tader	-0.0628
-4.0702 Tahare	-0.0628
-4.0702 Tahole	-0.0622
-4.0702 Tai	-0.0628
-4.0702 Take	0.0000
-3.2837 Tar	-0.0617
-4.0702 Taro	-0.0626
-3.5847 Teep	-0.1327
-4.0702 Teerete	-0.0628
-4.0702 Thakbo	0.0000
-4.0702 Thake	-0.0628
-4.0702 Theke	0.0000
-3.5847 Theko	-0.1327
-4.0702 Thikana	0.0000
-4.0702 Thumai	0.0000
-4.0702 Tin	-0.0628
-4.0702 To	-0.0627
-3.1868 Tobu	-0.1244
-4.0702 Tobuo	-0.0628
-4.0702 Tokhon	-0.0627
-4.0702 Tolai	-0.0628
-4.0702 Tomader	-0.0614
-4.0702 Tomai	0.0000
-3.4086 Tomake	-0.1722
-4.0702 Tomakei	-0.0614
-2.7718 Tomar	-0.0884
-4.0702 Tomari	-0.0628
-4.0702 Tomaro	-0.0628
-4.0702 Tomay	-0.0613
-4.0702 Toni	-0.0628
-3.2837 Tor	-0.1326
-3.5847 Tora	-0.1319
-4.0702 Tore	-0.0625
-3.1868 Tui	-0.0604
-4.0702 Tulona	-0.0626
-4.0702 Tumai	0.0000
-4.0702 Tumar	-0.0628
-2.6553 Tumi	-0.0554
-4.0702 Tuulir	0.0000
-4.0702 Udasin	0.0000
-4.0702 Uddessho	-0.0622
-4.0702 Udvranto	-0.0627
-4.0702 Ure	-0.0626
-4.0702 Uthbe	-0.0619
-4.0702 Uttor	-0.0627
-4.0702 Vabei	-0.0628
-4.0702 Valobashar	-0.0627
-3.5847 Valobashi	-0.0600
-4.0702 Valobaso	-0.0585
-3.5847 Valobeshe	-0.1321
-4.0702 Vangon	0.0000
-4.0702 Vasbo	-0.0584
-4.0702 Vashiye	-0.0628
-4.0702 Vasrity_life_tour	0.0000
-4.0702 Vhalobashar	0.0000
-4.0702 Vhetha	0.0000
-4.0702 Voy	-0.0603
-4.0702 Vul	-0.0623
-4.0702 Vule	-0.0627
-2.9315 a	-0.0714
-4.0702 aabeg	-0.0627
-4.0702 aabortey	0.0000
-4.0702 aache	-0.0593
-4.0702 aachhe	-0.0628
-4.0702 aachi	0.0000
-4.0702 aacho	0.0000
-4.0702 aadore	0.0000
-3.2837 aae	-0.0614
-4.0702 aaga	-0.0628
-4.0702 aagam	-0.0628
-4.0702 aage	0.0000
-4.0702 aaghat	-0.0627
-4.0702 aagun	0.0000
-4.0702 aailo	-0.0625
-4.0702 aaino	-0.0628
-2.4878 aaj	-0.2347
-4.0702 aajahar	-0.0628
-3.4086 aajo	-0.0624
-4.0702 aak	-0.0618
-4.0702 aakaasho	-0.0628
-4.0702 aakbo	0.0000
-4.0702 aake	0.0000
-4.0702 aakhere	-0.0628
-4.0702 aakhir	-0.0628
-4.0702 aakhite	0.0000
-4.0702 aaki	0.0000
-4.0702 aakmone	-0.0626
-4.0702 aako	0.0000
-4.0702 aaloke	-0.0628
-4.0702 aamar	0.0000
-3.5847 aami	-0.0595
-4.0702 aankto	0.0000
-4.0702 aanlo	-0.0589
-3.5847 aapni	-0.0588
-4.0702 aapshoho	-0.0626
-2.5847 aar	-0.0776
-4.0702 aaro	-0.0621
-4.0702 aarot	-0.0628
-4.0702 aarr	0.0000
-4.0702 aasha	0.0000
-4.0702 aashe	-0.0628
-4.0702 aashwas	-0.0628
-4.0702 aasile	-0.0628
-3.5847 aat	-0.0627
-4.0702 aay	-0.0618
-4.0702 aayna	-0.0626
-2.8858 abar	-0.0580
-3.5847 abaro	-0.0605
-4.0702 abegi	-0.0628
-4.0702 abesh	-0.0618
-3.5847 abeshe	-0.0580
-4.0702 abirrvab	-0.0625
-4.0702 abishkar	-0.0628
-4.0702 aboron	-0.0628
-4.0702 abr	-0.0627
-3.5847 ac	-0.0613
-4.0702 accident	0.0000
-2.8066 ache	-0.0565
-3.2837 achhe	-0.0600
-4.0702 achho	-0.0622
-3.1076 achi	-0.0761
-3.2837 acho	-0.0610
-4.0702 achole	-0.0627
-4.0702 acholer	-0.0628
-4.0702 adalot	-0.0628
-4.0702 adar	-0.0622
-4.0702 aday	-0.0618
-3.1076 adda	-0.0821
-4.0702 adhaar	-0.0628
-3.5847 adhar	-0.0601
-4.0702 adhare	-0.0627
-4.0702 adharer	0.0000
-4.0702 adho	-0.0628
-4.0702 ador	-0.0601
-3.1076 ae	-0.0820
-4.0702 aedis	-0.0627
-4.0702 agamikal	-0.0623
-4.0702 agamir	0.0000
-4.0702 agay	-0.0628
-2.8858 age	-0.0569
-4.0702 agei	-0.0625
-4.0702 agekar	-0.0628
-4.0702 ageo	-0.0621
-3.4086 ager	-0.0607
-4.0702 aghat	0.0000
-4.0702 agle	-0.0627
-4.0702 agost	-0.0627
-4.0702 agrohi	0.0000
-4.0702 aguan	-0.0628
-4.0702 agun	0.0000
-4.0702 aguney	0.0000
-3.1868 aha	-0.1171
-4.0702 ahaa	0.0000
-4.0702 ahaha	-0.0624
-4.0702 ahoban	0.0000
-4.0702 ahoto	-0.0628
-4.0702 ai	-0.0614
-2.7396 aj	-0.0620
-4.0702 ajbe	0.0000
-4.0702 ajh	0.0000
-4.0702 ajhhay	-0.0590
-4.0702 aji	-0.0628
-4.0702 ajibon	-0.0628
-3.5847 ajk	-0.0627
-3.1076 ajke	-0.0800
-3.2837 ajker	-0.0623
-4.0702 ajo	-0.0628
-4.0702 ak	-0.0628
-4.0702 aka	0.0000
-4.0702 akaash	0.0000
-4.0702 akaser	0.0000
-2.8066 akash	-0.0682
-3.5847 akashe	-0.0607
-3.1076 akasher	-0.0614
-4.0702 akashr	0.0000
-4.0702 akbar	-0.0627
-4.0702 akdom	0.0000
-4.0702 ake	0.0000
-4.0702 akhi	-0.0626
-4.0702 akhon	-0.0628
-4.0702 akhono	-0.0626
-4.0702 ako	0.0000
-3.5847 akono	-0.1324
-3.5847 akranto	-0.0621
-4.0702 aksathe	0.0000
-4.0702 aksho	-0.0624
-4.0702 akuli	0.0000
-4.0702 alada	0.0000
-4.0702 ale	-0.0628
-4.0702 ali	-0.0628
-4.0702 alkatrar	0.0000
-4.0702 almari	-0.0617
-3.0407 alo	-0.0978
-4.0702 aloi	-0.0585
-3.5847 alokito	-0.0616
-3.5847 alor	-0.0603
-4.0702 alos	0.0000
-3.5847 alote	-0.0627
-4.0702 aloy	0.0000
-4.0702 aloye	-0.0628
-4.0702 alseshian	-0.0627
-4.0702 alta	0.0000
-4.0702 amaar	-0.0627
-2.7396 amader	-0.0545
-3.0407 amae	-0.0811
-3.1076 amai	-0.0618
-2.8444 amake	-0.0542
-4.0702 amakei	-0.0628
-4.0702 amantran	0.0000
-2.0934 amar	-0.0578
-4.0702 amare	0.0000
-4.0702 amari	0.0000
-3.5847 amaro	-0.0627
-4.0702 amate	0.0000
-2.9827 amay	-0.0958
-4.0702 amder	-0.0627
-3.5847 ame	-0.0618
-3.5847 america	-0.0617
-1.9937 ami	-0.0833
-3.5847 amio	-0.0622
-4.0702 amon	-0.0624
-3.5847 amr	-0.0620
-2.7396 amra	-0.0737
-4.0702 ananda	-0.0628
-4.0702 ancholik	-0.0627
-4.0702 and	-0.0628
-4.0702 andoloner	-0.0628
-4.0702 anghinay	0.0000
-4.0702 anginaay	0.0000
-4.0702 angintae	0.0000
-4.0702 angual	0.0000
-4.0702 angul	0.0000
-4.0702 aniye	-0.0628
-4.0702 ankhi	0.0000
-4.0702 anmona	-0.0627
-4.0702 anmone	0.0000
-4.0702 anole	0.0000
-4.0702 anonde	-0.0622
-3.4086 anondo	-0.0617
-4.0702 ante	-0.0627
-4.0702 anum	-0.0628
-4.0702 apatoto	-0.0628
-4.0702 apnar	-0.0622
-3.5847 apon	-0.0600
-4.0702 aponar	-0.0626
-4.0702 aponi	-0.0628
-4.0702 aponmone	0.0000
-4.0702 apono	-0.0627
-2.4544 ar	-0.0534
-4.0702 aram	-0.0628
-3.4086 are	-0.1073
-4.0702 arekta	-0.0626
-3.4086 argentina	-0.0555
-4.0702 ari	0.0000
-2.9827 aro	-0.0768
-4.0702 arop	-0.0625
-4.0702 aroper	-0.0625
-3.5847 arthik	-0.0627
-4.0702 asbe	-0.0628
-4.0702 asche	-0.0628
-4.0702 ase	-0.0620
-4.0702 asha	-0.0627
-4.0702 ashaar	-0.0625
-4.0702 ashai	0.0000
-4.0702 ashamir	0.0000
-3.4086 ashar	-0.0622
-4.0702 ashate	0.0000
-4.0702 ashay	0.0000
-3.5847 ashaye	-0.0621
-4.0702 ashbab	-0.0628
-3.4086 ashbe	-0.0627
-4.0702 ashbei	-0.0623
-3.1868 ashe	-0.0613
-4.0702 ashi	-0.0628
-4.0702 ashirbaad	-0.0627
-4.0702 ashiya	-0.0628
-4.0702 ashkarate	-0.0626
-4.0702 ashle	-0.0628
-4.0702 asho	0.0000
-4.0702 ashol	-0.0628
-4.0702 ashole	-0.0626
-4.0702 ashona	0.0000
-4.0702 ashonka	0.0000
-4.0702 ashonno	-0.0628
-4.0702 ashrom	-0.0594
-4.0702 ashya	-0.0627
-3.5847 asol	-0.1299
-4.0702 asroy	-0.0628
-4.0702 assignment	-0.0628
-4.0702 aste	0.0000
-4.0702 ata	0.0000
-4.0702 atke	-0.0626
-4.0702 ato	0.0000
-4.0702 atonko	-0.0613
-4.0702 awami	-0.0627
-4.0702 awamilig	0.0000
-4.0702 awshottey	0.0000
-4.0702 ay	-0.0626
-4.0702 ayaner	-0.0627
-4.0702 ayojito	0.0000
-4.0702 ayre	0.0000
-2.9827 ba	-0.0618
-4.0702 baaashi	0.0000
-4.0702 baachte	-0.0628
-4.0702 baadha	-0.0627
-4.0702 baaje	-0.0585
-4.0702 baajena	0.0000
-4.0702 baaka	0.0000
-4.0702 baakita	-0.0621
-4.0702 baali	-0.0628
-4.0702 baar	0.0000
-4.0702 baari	0.0000
-4.0702 baariye	0.0000
-4.0702 baash	-0.0627
-4.0702 baashi	0.0000
-4.0702 baaul	-0.0627
-4.0702 baba	-0.0613
-3.5847 babar	-0.0625
-4.0702 babur	-0.0628
-4.0702 baby	-0.0628
-4.0702 bacar	-0.0613
-4.0702 bacate,shawtangder	-0.0614
-3.4086 baccha	-0.0607
-3.5847 bachao	-0.0628
-3.5847 bachar	-0.0624
-4.0702 bachbo	-0.0589
-4.0702 bachi	0.0000
-4.0702 bachiye	-0.0628
-4.0702 bachte	0.0000
-3.5847 bad	-0.0617
-4.0702 baddhotamulok	-0.0625
-3.2837 badh	-0.0625
-4.0702 badha	-0.0627
-4.0702 badhae	0.0000
-4.0702 badhe	-0.0625
-4.0702 badher	-0.0628
-4.0702 badhgulo	-0.0628
-4.0702 badhon	0.0000
-4.0702 badi	-0.0628
-4.0702 badol	0.0000
-4.0702 badoler	-0.0596
-3.5847 bag	-0.0627
-4.0702 bagaan	-0.0628
-4.0702 bagaane	-0.0614
-4.0702 bagan	0.0000
-4.0702 bager	-0.0614
-4.0702 bagichay	0.0000
-4.0702 bahir	-0.0627
-4.0702 bahsa	-0.0628
-3.2837 baibel	-0.0596
-4.0702 baibele	-0.0627
-4.0702 baibona	0.0000
-4.0702 bailam	-0.0626
-4.0702 baindha	-0.0627
-3.5847 baire	-0.0616
-4.0702 baireo	-0.0622
-4.0702 baiya	0.0000
-4.0702 baj	0.0000
-4.0702 bajare	-0.0628
-3.5847 baje	-0.0613
-4.0702 bajena	-0.0627
-4.0702 bajlo	0.0000
-4.0702 bajloooo	-0.0607
-3.5847 baka	-0.0600
-3.2837 bakaa	-0.0627
-4.0702 bakaae	-0.0628
-4.0702 bakaare	-0.0627
-4.0702 baki	-0.0626
-4.0702 bakider	-0.0628
-4.0702 bakondhutto	0.0000
-4.0702 bakul	-0.0619
-4.0702 bale	-0.0628
-4.0702 bali	0.0000
-4.0702 balishe	-0.0607
-3.5847 balo	-0.1327
-4.0702 balobasha	0.0000
-4.0702 balu	-0.0624
-4.0702 banaise	0.0000
-4.0702 bandan	0.0000
-4.0702 bandarban	-0.0628
-4.0702 bandha	-0.0628
-4.0702 bandhayachi	0.0000
-4.0702 bandibo	0.0000
-3.5847 bangalir	-0.0627
-4.0702 bangladeh	-0.0594
-3.5847 bangladesh	-0.0590
-3.4086 bangladeshe	-0.1075
-3.4086 bangladesher	-0.0626
-4.0702 banglar	-0.0628
-4.0702 bangoma	-0.0628
-4.0702 bangomi	-0.0628
-4.0702 baniye	-0.0627
-4.0702 bank	-0.0608
-4.0702 banki	0.0000
-3.4086 bar	-0.0604
-4.0702 baraae	0.0000
-4.0702 barae	0.0000
-4.0702 barale	-0.0628
-4.0702 baralo	0.0000
-4.0702 barano	0.0000
-4.0702 barar	-0.0628
-4.0702 barate	-0.0627
-4.0702 barbar	-0.0628
-4.0702 barche	0.0000
-4.0702 bare	-0.0628
-4.0702 barey	0.0000
-3.5847 bari	-0.0621
-4.0702 barimoy	0.0000
-4.0702 barir	-0.0628
-4.0702 barite	-0.0628
-4.0702 bariye	-0.0627
-4.0702 baro	0.0000
-4.0702 baron	0.0000
-4.0702 barte	-0.0626
-3.5847 barti	-0.0628
-4.0702 bas	-0.0627
-4.0702 baser	-0.0628
-4.0702 bash	-0.0608
-4.0702 bash0na	0.0000
-4.0702 basha	0.0000
-4.0702 bashar	-0.0624
-4.0702 bashay	-0.0622
-4.0702 bashbo	-0.0610
-4.0702 bashela	-0.0627
-4.0702 bashete	-0.0627
-3.5847 bashi	-0.0616
-4.0702 bashite	-0.0627
-4.0702 bashlo	-0.0621
-4.0702 basho	0.0000
-4.0702 bashona	-0.0627
-4.0702 bashor	-0.0628
-4.0702 bashore	0.0000
-4.0702 basobe	-0.0626
-4.0702 basto	-0.0628
-4.0702 bastobaioto	-0.0628
-3.5847 bastobayon	-0.0607
-4.0702 bastobayonkale	-0.0628
-4.0702 bastobota	0.0000
-4.0702 bata	0.0000
-3.5847 batashe	-0.0627
-4.0702 bathtabe	-0.0593
-4.0702 bati	0.0000
-4.0702 batil	-0.0625
-4.0702 bazar	-0.0624
-4.0702 bazare	-0.0628
-4.0702 beatles	-0.0628
-4.0702 bebi	-0.0628
-3.1076 bebohar	-0.1104
-3.2837 beboharer	-0.0947
-3.5847 beboharkari	-0.0625
-4.0702 bebosthapona	-0.0628
-4.0702 bebosthay	0.0000
-4.0702 bebsha	-0.0619
-4.0702 bebshaiye	-0.0628
-4.0702 beche	-0.0624
-4.0702 bechte	-0.0627
-4.0702 bedhe	0.0000
-4.0702 bedhechhile	0.0000
-4.0702 bedhechi	0.0000
-3.5847 bedona	-0.0619
-4.0702 bedonaar	-0.0628
-4.0702 bedonay	-0.0626
-4.0702 bedrum	-0.0628
-4.0702 beena	0.0000
-4.0702 beenae	0.0000
-4.0702 bege	0.0000
-4.0702 behalar	-0.0628
-3.1076 bela	-0.1053
-4.0702 belar	-0.0626
-4.0702 belay	-0.0625
-4.0702 bele	-0.0628
-4.0702 benami	0.0000
-3.5847 benche	-0.0625
-4.0702 beni	0.0000
-4.0702 benu	0.0000
-4.0702 bepok	-0.0625
-4.0702 bepokhare	0.0000
-4.0702 bepokota	-0.0628
-4.0702 ber	-0.0626
-4.0702 berai	0.0000
-4.0702 berao	0.0000
-4.0702 berie	0.0000
-4.0702 beriye	0.0000
-4.0702 berthota	-0.0628
-3.5847 besh	-0.0628
-4.0702 beshechi	0.0000
-2.9315 beshi	-0.0559
-3.5847 beshir	-0.1327
-4.0702 beshirvag	-0.0627
-3.5847 beshorkari	-0.0628
-3.2837 besi	-0.1416
-4.0702 bestotar	-0.0624
-3.2837 betha	-0.0622
-4.0702 bethar	-0.0628
-4.0702 bethoven	0.0000
-3.5847 beye	-0.0625
-4.0702 bhaag	0.0000
-4.0702 bhaaty	-0.0628
-4.0702 bhabana	0.0000
-4.0702 bhabcho	-0.0627
-4.0702 bhabe	-0.0627
-4.0702 bhabi	-0.0627
-4.0702 bhabonare	-0.0599
-4.0702 bhagabhagir	-0.0628
-4.0702 bhai	-0.0628
-4.0702 bhaire	-0.0627
-2.7718 bhalo	-0.0825
-3.0407 bhalobasha	-0.0954
-4.0702 bhalobashar	-0.0628
-4.0702 bhalobashay	-0.0628
-2.9315 bhalobashi	-0.0699
-4.0702 bhalobasho	-0.0585
-4.0702 bhalobashoni	0.0000
-3.4086 bhalobeshe	-0.0622
-4.0702 bhaloi	-0.0628
-4.0702 bhanga	0.0000
-4.0702 bhangcho	-0.0628
-4.0702 bhangir	0.0000
-4.0702 bhanglo	0.0000
-4.0702 bharot	-0.0627
-4.0702 bhashaiya	-0.0627
-4.0702 bhashay	0.0000
-4.0702 bhashi	0.0000
-4.0702 bhaste	0.0000
-3.5847 bhat	-0.0627
-4.0702 bhattay	-0.0628
-4.0702 bhebe	0.0000
-4.0702 bhebhe	0.0000
-3.4086 bheja	-0.0627
-3.5847 bhenge	-0.0624
-4.0702 bheshe	-0.0628
-4.0702 bhetor	-0.0628
-4.0702 bhijbo	-0.0628
-4.0702 bhije	0.0000
-4.0702 bhijeche	0.0000
-4.0702 bhiru	-0.0627
-4.0702 bhishon	0.0000
-3.5847 bho	-0.0627
-4.0702 bhober	0.0000
-3.5847 bhole	-0.1289
-3.2837 bhora	-0.0622
-4.0702 bhorbela	-0.0628
-3.5847 bhore	-0.0625
-4.0702 bhorechi	0.0000
-4.0702 bhori	0.0000
-4.0702 bhoro	0.0000
-4.0702 bhoy	-0.0628
-4.0702 bhuban	0.0000
-4.0702 bhugchhe	-0.0627
-3.1868 bhule	-0.0620
-4.0702 bhulechhi	-0.0625
-4.0702 bhulechilam	-0.0628
-4.0702 bhuleo	-0.0628
-4.0702 bhulibar	0.0000
-4.0702 bhushon	0.0000
-4.0702 bibagi	-0.0590
-4.0702 bibiana	-0.0628
-4.0702 bidae	-0.0622
-4.0702 biday	0.0000
-4.0702 bideshe	-0.0627
-4.0702 bidhai	-0.0585
-4.0702 bidhata	-0.0622
-4.0702 bidhi	-0.0618
-4.0702 bighono	0.0000
-4.0702 bigyapon	-0.0594
-4.0702 bijepi	-0.0627
-4.0702 bijli	-0.0628
-4.0702 bijoli	0.0000
-4.0702 bikal	-0.0590
-4.0702 bikale	-0.0627
-3.5847 bikel	-0.1323
-4.0702 bilay	0.0000
-4.0702 bilupto	-0.0627
-4.0702 bimaan	-0.0628
-3.5847 biman	-0.0628
-4.0702 binamulleyer	-0.0623
-4.0702 binar	-0.0621
-4.0702 binay	-0.0628
-4.0702 binayai	-0.0625
-4.0702 bindu	-0.0585
-4.0702 binimoye	0.0000
-4.0702 biniyoge	-0.0628
-4.0702 bipholotar	-0.0628
-4.0702 biplober	-0.0627
-3.5847 bipoder	-0.0627
-4.0702 birol	-0.0627
-4.0702 birombona	0.0000
-4.0702 birombonar	-0.0627
-4.0702 biruddhe	-0.0628
-4.0702 bischop	0.0000
-4.0702 bish	-0.0628
-4.0702 bishaad	0.0000
-4.0702 bishade	-0.0628
-4.0702 bishal	-0.0628
-4.0702 bishesh	-0.0601
-4.0702 bishjon	0.0000
-4.0702 bishobiddaloy	-0.0624
-4.0702 bishom	0.0000
-4.0702 bishorjan	0.0000
-4.0702 bishorjon	0.0000
-3.5847 bishoy	-0.0625
-4.0702 bishoybostur	-0.0627
-3.5847 bishoyo	-0.1328
-3.5847 bishoyok	-0.0628
-4.0702 bishsash	-0.0628
-4.0702 bisshashghatok	-0.0621
-4.0702 bissher	-0.0613
-4.0702 bissheshe	-0.0627
-4.0702 bissho	0.0000
-4.0702 bisshobepi	-0.0628
-4.0702 bissinno	-0.0626
-4.0702 bistar	-0.0589
-4.0702 bistrito	-0.0628
-4.0702 bivag	-0.0628
-4.0702 bivager	-0.0628
-3.5847 bivajon	-0.0616
-3.0407 bivinno	-0.0616
-4.0702 bivranti	-0.0627
-4.0702 biyeo	-0.0628
-4.0702 biyer	-0.0626
-4.0702 blade	0.0000
-4.0702 bluyest	0.0000
-2.9827 bochor	-0.0614
-4.0702 bochore	-0.0625
-4.0702 bochorer	-0.0627
-4.0702 boddo	-0.0601
-3.5847 bodh	-0.1318
-4.0702 bodher	0.0000
-4.0702 bodhhoy	-0.0622
-4.0702 bodhoy	-0.0617
-4.0702 bodle	-0.0628
-4.0702 bodmash	0.0000
-4.0702 body	-0.0619
-4.0702 boguray	-0.0628
-4.0702 bohal	0.0000
-4.0702 bohu	-0.0622
-4.0702 bohudin	0.0000
-4.0702 boikal	-0.0590
-4.0702 boila	0.0000
-4.0702 boisha	0.0000
-4.0702 boishisthy	-0.0624
-4.0702 boithok	0.0000
-4.0702 bojhar	-0.0628
-4.0702 bojhena	0.0000
-4.0702 bojho	-0.0589
-4.0702 bojhoni	0.0000
-4.0702 bojona	0.0000
-4.0702 boka	0.0000
-4.0702 bol	-0.0628
-3.2837 bola	-0.0608
-4.0702 bolakar	-0.0624
-4.0702 bolar	0.0000
-4.0702 bolbar	0.0000
-4.0702 bolbe	-0.0599
-4.0702 bolbo	0.0000
-4.0702 bolche	-0.0615
-2.5847 bole	-0.0851
-4.0702 bole,	-0.0628
-4.0702 boleche	-0.0627
-3.5847 bolei	-0.0620
-3.5847 bolen	-0.0624
-4.0702 bolenni	0.0000
-4.0702 boley	0.0000
-2.9315 boli	-0.1061
-4.0702 bolibo	0.0000
-4.0702 bolidan	0.0000
-4.0702 bolna	-0.0614
-2.9315 bolo	-0.0887
-3.5847 bolona	-0.1325
-4.0702 boloni	-0.0628
-4.0702 boltam	-0.0584
-3.4086 bolte	-0.1076
-4.0702 bolten	-0.0628
-3.4086 bon	-0.1079
-4.0702 bonbo	-0.0610
-4.0702 bonchito	-0.0624
-4.0702 bondher	-0.0628
-4.0702 bondhey	-0.0628
-4.0702 bondho	-0.0626
-4.0702 bondhon	-0.0628
-2.8066 bondhu	-0.0636
-4.0702 bondhuder	-0.0625
-4.0702 bondhur	-0.0596
-3.5847 bondhutter	-0.0628
-4.0702 bondi	-0.0627
-4.0702 bondore	0.0000
-4.0702 bondu	-0.0628
-4.0702 bone	0.0000
-4.0702 boney	-0.0628
-4.0702 bongshdhor	-0.0617
-4.0702 bonna	0.0000
-3.5847 bonno	-0.1327
-4.0702 bonnyar	-0.0627
-4.0702 bonyay	-0.0596
-4.0702 booking,	-0.0627
-3.5847 bor	-0.0628
-4.0702 boraborer	-0.0628
-4.0702 boraddo	-0.0627
-4.0702 border	-0.0627
-4.0702 borgira	-0.0621
-4.0702 borne	-0.0628
-4.0702 bornoshonkot	-0.0622
-2.8066 boro	-0.0827
-4.0702 boroi	0.0000
-4.0702 boron	-0.0628
-4.0702 boroshe	0.0000
-4.0702 borsha	0.0000
-4.0702 bortoman	-0.0628
-4.0702 bose	0.0000
-2.8444 boshe	-0.0517
-4.0702 boshi	0.0000
-4.0702 boshobash	0.0000
-3.4086 boshontero	-0.1724
-4.0702 bostur	-0.0628
-4.0702 bottrish	-0.0628
-4.0702 bouchi	0.0000
-3.5847 boye	-0.0608
-4.0702 boyeshi	-0.0627
-4.0702 boyna	0.0000
-4.0702 boyos	0.0000
-3.4086 boyosh	-0.0625
-3.5847 boyoshi	-0.0625
-4.0702 boyoshira	-0.0625
-4.0702 brazil	-0.0594
-4.0702 briddhassrom	0.0000
-4.0702 brikher	0.0000
-4.0702 brisht	0.0000
-3.2837 brishti	-0.1414
-4.0702 bristi	0.0000
-4.0702 bristiteo	-0.0627
-3.1076 bristy	-0.0582
-4.0702 britha	-0.0628
-4.0702 brithaa	0.0000
-4.0702 btayon	-0.0627
-4.0702 bujhaile	0.0000
-4.0702 bujhaite	0.0000
-3.2837 bujhe	-0.0908
-4.0702 bujhi	-0.0617
-4.0702 bujhinai	0.0000
-4.0702 bujhini	-0.0628
-4.0702 bujhiye	-0.0627
-4.0702 bujhte	-0.0625
-4.0702 bujlei	-0.0625
-2.9315 buke	-0.0720
-4.0702 buker	-0.0621
-4.0702 bukhe	-0.0626
-4.0702 bulbo	-0.0584
-3.4086 bulbul	-0.0622
-3.5847 bule	-0.1324
-4.0702 bunohaash	-0.0621
-4.0702 bunoyel	0.0000
-4.0702 burger	0.0000
-4.0702 buro	0.0000
-3.4086 bus	-0.1043
-4.0702 but	-0.0621
-4.0702 buuker	-0.0628
-4.0702 byaboharer	-0.0614
-4.0702 byatha	0.0000
-4.0702 cacchen,kintu	-0.0628
-4.0702 cai	0.0000
-4.0702 calaya	-0.0627
-3.5847 caliye	-0.0624
-4.0702 can	0.0000
-4.0702 cancer	-0.0590
-3.0407 card	-0.0718
-4.0702 cha	-0.0628
-4.0702 chaad	-0.0628
-4.0702 chaader	0.0000
-4.0702 chaadore	-0.0627
-4.0702 chaai	-0.0628
-3.5847 chaaite	-0.1327
-4.0702 chaariye	0.0000
-4.0702 chaaye	-0.0628
-4.0702 chaayer	-0.0628
-4.0702 chabi	0.0000
-4.0702 chabuk	-0.0627
-3.5847 chad	-0.0628
-4.0702 chada	-0.0596
-3.4086 chader	-0.0624
-4.0702 chador	0.0000
-4.0702 chady	0.0000
-4.0702 chahibo	-0.0589
-4.0702 chahida	0.0000
-4.0702 chahiyaa	0.0000
-3.1076 chai	-0.1041
-4.0702 chaila	-0.0589
-4.0702 chaina	0.0000
-4.0702 chaini	0.0000
-4.0702 chair	-0.0627
-4.0702 chaire	0.0000
-4.0702 chaite	-0.0619
-4.0702 chalacche	0.0000
-4.0702 chalate	-0.0627
-3.5847 challenge	-0.0622
-4.0702 chalu	0.0000
-2.9315 chamra	-0.0603
-4.0702 chamrajat	-0.0628
-3.2837 chamrar	-0.0624
-4.0702 chander	-0.0622
-4.0702 chao	-0.0625
-4.0702 chapa	-0.0627
-3.1076 char	-0.0596
-3.5847 chara	-0.0625
-4.0702 charbe	-0.0589
-4.0702 charer	-0.0627
-4.0702 charidik	-0.0628
-4.0702 charie	0.0000
-4.0702 charipase	0.0000
-3.5847 chariye	-0.0625
-4.0702 charle	0.0000
-4.0702 charminar	-0.0628
-4.0702 charo	0.0000
-4.0702 charpotro	-0.0589
-4.0702 charte	0.0000
-4.0702 chating	-0.0622
-4.0702 chawai	0.0000
-3.4086 chay	-0.0614
-3.4086 chaya	-0.0615
-4.0702 chayae	-0.0621
-4.0702 chayaghera	-0.0628
-3.5847 chayna	-0.1318
-4.0702 chayre	0.0000
-4.0702 chechiye	-0.0624
-4.0702 cheese	-0.0628
-4.0702 chehara	-0.0628
-4.0702 cheharar	-0.0627
-3.2837 chele	-0.0567
-4.0702 cheler	-0.0593
-4.0702 chelera	-0.0628
-3.5847 cheleta	-0.0624
-4.0702 cheletao	-0.0621
-4.0702 cheli	-0.0617
-3.5847 chena	-0.0623
-3.5847 chera	-0.1325
-2.8858 chere	-0.1185
-4.0702 cheya	0.0000
-4.0702 cheyarman	-0.0627
-2.9827 cheye	-0.0766
-4.0702 cheyechi	-0.0628
-4.0702 cheyedekho	-0.0628
-4.0702 chhaarte	0.0000
-4.0702 chhai	-0.0619
-4.0702 chhailo	0.0000
-4.0702 chhayamoy	-0.0628
-4.0702 chhayar	0.0000
-4.0702 chhele	-0.0627
-4.0702 chhere	-0.0622
-3.5847 chhobi	-0.0581
-3.5847 chholat	-0.0625
-4.0702 chholona	0.0000
-4.0702 chhutey	0.0000
-4.0702 chicken	-0.0628
-4.0702 chikitsha	-0.0627
-4.0702 chilam	-0.0628
-3.1868 chile	-0.1175
-3.0407 chilo	-0.0596
-4.0702 chinbo	-0.0599
-4.0702 chine	-0.0626
-4.0702 chinno	-0.0619
-4.0702 chintake	-0.0627
-4.0702 chipay	-0.0625
-4.0702 chire	-0.0613
-4.0702 chiriache	-0.0627
-4.0702 chiro	0.0000
-3.1868 chirodin	-0.1156
-4.0702 chirodiner	-0.0618
-4.0702 chironattokarder	-0.0628
-4.0702 chitkar	-0.0601
-4.0702 chitke	-0.0625
-4.0702 chitro	-0.0628
-4.0702 cho	-0.0628
-4.0702 choa	-0.0618
-4.0702 choar	-0.0623
-4.0702 chobe	-0.0626
-3.1868 chobi	-0.0586
-4.0702 choi	-0.0628
-4.0702 choila	0.0000
-4.0702 choitro	-0.0628
-4.0702 choke	-0.0626
-3.4086 choker	-0.0621
-3.0407 chokh	-0.0613
-3.1868 chokhe	-0.0577
-3.5847 chokher	-0.0627
-4.0702 chokite	0.0000
-4.0702 chol	-0.0628
-4.0702 cholaa	-0.0627
-4.0702 cholachol	-0.0601
-4.0702 cholar	-0.0626
-4.0702 cholay	-0.0627
-3.5847 cholbo	-0.0619
-4.0702 cholche	-0.0619
-3.1868 chole	-0.0877
-3.5847 choleche	-0.1324
-4.0702 cholechho	-0.0596
-4.0702 cholechi	0.0000
-4.0702 choley	-0.0625
-4.0702 choli	0.0000
-3.5847 cholla	-0.0627
-3.2837 cholo	-0.0614
-4.0702 cholti	-0.0628
-4.0702 cholto	0.0000
-4.0702 chomkalo	-0.0589
-4.0702 chomoki	-0.0628
-4.0702 chompa	-0.0626
-4.0702 chonchol	-0.0628
-4.0702 chonde	0.0000
-4.0702 chondon	0.0000
-4.0702 chondro	-0.0628
-4.0702 chor	0.0000
-3.5847 chora	-0.1328
-4.0702 chorai	-0.0622
-4.0702 chorchay	-0.0627
-3.5847 chore	-0.0627
-4.0702 chori	-0.0628
-4.0702 chorone	0.0000
-2.9827 choto	-0.0947
-4.0702 chotobelaae	-0.0624
-4.0702 chotto	-0.0599
-4.0702 choturpashe	-0.0627
-4.0702 chowa	0.0000
-4.0702 choy	-0.0627
-3.5847 choya	-0.0588
-4.0702 choysho	-0.0628
-4.0702 chube	-0.0627
-4.0702 chubi	-0.0593
-4.0702 chul	-0.0628
-4.0702 chumuk	0.0000
-4.0702 chup	0.0000
-4.0702 chupisharey	0.0000
-4.0702 chupti	0.0000
-4.0702 churi	0.0000
-3.1868 chute	-0.0888
-3.5847 chutese	-0.0626
-4.0702 chutochuti	-0.0627
-4.0702 chutte	0.0000
-4.0702 chuway	0.0000
-4.0702 chuwe	-0.0626
-4.0702 chuye	0.0000
-4.0702 cinema	-0.0628
-4.0702 cithi	-0.0628
-2.9827 class	-0.0706
-4.0702 cobbis	-0.0625
-3.5847 coffee	-0.1325
-4.0702 coitro	-0.0626
-4.0702 colbe	-0.0626
-4.0702 colche	-0.0628
-3.4086 cole	-0.0622
-4.0702 coleche	0.0000
-3.5847 college	-0.0594
-4.0702 computer	-0.0628
-3.5847 content	-0.0626
-3.5847 copa	-0.1327
-4.0702 course	-0.0628
-4.0702 cox	-0.0628
-3.2837 credit	-0.1724
-3.5847 cricket	-0.0626
-3.5847 cricketer	-0.0624
-4.0702 criketer	-0.0627
-4.0702 cromoyi	0.0000
-3.5847 cul	-0.0620
-3.5847 culer	-0.1325
-4.0702 cumki	-0.0627
-4.0702 cup	-0.0615
-4.0702 current	-0.0627
-4.0702 cycle	-0.0628
-4.0702 d	-0.0627
-4.0702 daak	-0.0613
-4.0702 daakbo	0.0000
-3.2837 daake	-0.0961
-4.0702 daako	0.0000
-4.0702 daam	0.0000
-4.0702 daami	-0.0628
-4.0702 daana	0.0000
-4.0702 daante	0.0000
-4.0702 daar	0.0000
-4.0702 daaraao	0.0000
-4.0702 daariye	0.0000
-4.0702 dage	-0.0621
-4.0702 dai	0.0000
-4.0702 daitte	-0.0627
-4.0702 dakadaki	0.0000
-4.0702 dakatia	0.0000
-4.0702 dakche	0.0000
-4.0702 dakha	0.0000
-4.0702 daki	-0.0589
-4.0702 dakle	0.0000
-4.0702 dana	-0.0627
-4.0702 danda	0.0000
-4.0702 danguli	0.0000
-3.1868 dao	-0.0851
-4.0702 daraben	-0.0628
-4.0702 daraeche	-0.0623
-4.0702 darai	-0.0625
-4.0702 darao	-0.0627
-4.0702 daray	-0.0622
-4.0702 dariye	0.0000
-4.0702 dashottey	0.0000
-3.5847 day	-0.0554
-4.0702 daye	0.0000
-4.0702 dayetto	-0.0627
-4.0702 debe	-0.0599
-4.0702 debit	-0.0625
-3.4086 debo	-0.0622
-4.0702 debona	0.0000
-4.0702 deche	-0.0589
-4.0702 deene	0.0000
-4.0702 deep	-0.0628
-4.0702 deepero	-0.0628
-4.0702 dehe	-0.0628
-4.0702 deho	-0.0628
-4.0702 dei	-0.0624
-4.0702 deikha	-0.0628
-4.0702 deiyeche	0.0000
-4.0702 dekba	-0.0585
-4.0702 dekbe	-0.0623
-4.0702 deke	-0.0624
-2.6070 dekha	-0.0797
-4.0702 dekhala	0.0000
-4.0702 dekhano	-0.0627
-3.2837 dekhar	-0.0622
-4.0702 dekharebong	-0.0628
-4.0702 dekhate	-0.0627
-4.0702 dekhbe	0.0000
-4.0702 dekhbena	-0.0596
-4.0702 dekhbo	-0.0599
-2.9827 dekhe	-0.0604
-4.0702 dekhecho	-0.0599
-2.8858 dekhi	-0.0730
-4.0702 dekhianje	0.0000
-4.0702 dekhibo	-0.0607
-4.0702 dekhina	0.0000
-4.0702 dekhini	-0.0607
-4.0702 dekhinu	-0.0593
-3.4086 dekhite	-0.1728
-4.0702 dekhiye	-0.0626
-4.0702 dekhlam	0.0000
-4.0702 dekhle	-0.0614
-4.0702 dekhlei	-0.0628
-2.9827 dekho	-0.1100
-3.5847 dekhte	-0.1284
-4.0702 dekina	-0.0603
-4.0702 dekona	-0.0628
-4.0702 delana	0.0000
-4.0702 den	0.0000
-4.0702 dena	0.0000
-3.2837 dengu	-0.0612
-3.5847 dengur	-0.0628
-4.0702 deo	0.0000
-4.0702 deoa	-0.0627
-3.5847 deoya	-0.0624
-4.0702 der	-0.0628
-4.0702 deri	0.0000
-4.0702 dero	-0.0627
-3.1868 desh	-0.0550
-3.2837 deshe	-0.0593
-4.0702 deshei	0.0000
-3.1076 desher	-0.0614
-4.0702 deshete	-0.0627
-4.0702 deta	0.0000
-4.0702 dewa	-0.0624
-3.5847 dey	-0.0627
-4.0702 deya	-0.0628
-4.0702 deyal	0.0000
-4.0702 deyale	-0.0628
-4.0702 deyalta	0.0000
-4.0702 deyar	-0.0621
-4.0702 deye	-0.0628
-4.0702 deyer	-0.0620
-4.0702 dh0re	-0.0628
-4.0702 dhaako	0.0000
-4.0702 dhaankhet	-0.0628
-4.0702 dhaare	0.0000
-4.0702 dhabito	-0.0618
-3.5847 dhaka	-0.0614
-4.0702 dhakar	-0.0626
-4.0702 dhale	-0.0619
-4.0702 dhan	-0.0601
-4.0702 dhaner	0.0000
-3.5847 dhanmondi	-0.1327
-4.0702 dhara	0.0000
-4.0702 dharate	0.0000
-4.0702 dharaye	-0.0628
-4.0702 dhare	-0.0621
-3.4086 dharona	-0.0587
-4.0702 dheke	0.0000
-4.0702 dhekey	0.0000
-4.0702 dheuye	0.0000
-4.0702 dhinak	-0.0628
-3.5847 dhire	-0.0626
-4.0702 dhitang	-0.0628
-4.0702 dhon	-0.0618
-4.0702 dhoni	0.0000
-3.4086 dhonno	-0.1012
-3.5847 dhora	-0.0618
-3.1868 dhore	-0.0587
-4.0702 dhorena	0.0000
-4.0702 dhoribe	-0.0628
-4.0702 dhormio	-0.0628
-4.0702 dhoro	-0.0626
-3.4086 dhoroner	-0.0627
-4.0702 dhrubo	0.0000
-3.5847 dhuke	-0.0622
-4.0702 dhulo	0.0000
-4.0702 dhum	-0.0628
-3.2837 dhupuk	-0.0934
-4.0702 dhur	-0.0628
-4.0702 dhushor	0.0000
-4.0702 di	0.0000
-3.5847 dia	-0.0628
-4.0702 diba	-0.0627
-4.0702 dibakor	0.0000
-4.0702 dibanisi	0.0000
-4.0702 dibe	-0.0626
-4.0702 dibi	-0.0599
-4.0702 dibinisi	0.0000
-4.0702 dibo	-0.0626
-4.0702 dicche	0.0000
-4.0702 dicchi	0.0000
-4.0702 dichche	0.0000
-4.0702 diche	0.0000
-4.0702 dichi	-0.0628
-4.0702 die	0.0000
-3.1076 digital	-0.0618
-4.0702 digonte	0.0000
-4.0702 digonto	-0.0628
-4.0702 dijon	-0.0626
-3.5847 dik	-0.1314
-3.4086 dike	-0.0615
-4.0702 dikgulo	-0.0626
-4.0702 dikri,	0.0000
-3.4086 dilam	-0.1076
-3.5847 dile	-0.0624
-4.0702 dilen	0.0000
-4.0702 dileo	-0.0624
-4.0702 dilo	-0.0628
-4.0702 dimer	-0.0628
-2.8066 din	-0.0719
-3.1868 dine	-0.0618
-4.0702 diner	-0.0628
-4.0702 diney	0.0000
-4.0702 dingi	-0.0628
-4.0702 dingulo	-0.0626
-4.0702 dintaake	0.0000
-4.0702 dintaar	-0.0624
-4.0702 dinu	0.0000
-3.1868 dip	-0.0803
-4.0702 dirghodin	-0.0626
-4.0702 dirgosas	-0.0594
-4.0702 dishahara	0.0000
-4.0702 dishaharaa	0.0000
-4.0702 dishehara	-0.0626
-4.0702 disi	-0.0628
-4.0702 ditaam	0.0000
-2.9827 dite	-0.0771
-4.0702 ditechi	0.0000
-4.0702 diten	0.0000
-4.0702 ditio	-0.0628
-4.0702 dito	0.0000
-3.4086 diya	-0.0627
-4.0702 diyare	0.0000
-2.6070 diye	-0.0574
-3.4086 diyeche	-0.0615
-4.0702 diyechen	-0.0628
-3.4086 diyechi	-0.1684
-4.0702 diyecho	0.0000
-4.0702 diyei	-0.0627
-4.0702 dohre	0.0000
-3.4086 dokane	-0.0624
-4.0702 dokka	0.0000
-3.4086 dol	-0.0608
-4.0702 dola	0.0000
-4.0702 dolaae	-0.0628
-4.0702 dolae	0.0000
-4.0702 dolao	0.0000
-4.0702 dolar	-0.0628
-4.0702 dolay	-0.0622
-3.4086 dole	-0.0578
-4.0702 dolena	0.0000
-3.1868 doler	-0.0624
-4.0702 dolnai	-0.0585
-4.0702 dolpremi	-0.0622
-4.0702 dom	-0.0627
-4.0702 dompotir	-0.0628
-3.5847 dondo	-0.0627
-4.0702 dorbare	-0.0628
-4.0702 dorbo	0.0000
-4.0702 dore	0.0000
-4.0702 dorja	-0.0618
-4.0702 dorjay	-0.0625
-4.0702 dorkar	-0.0618
-4.0702 dorshok	-0.0627
-4.0702 dorshonke	-0.0627
-4.0702 dos	-0.0628
-3.1868 dosh	-0.0578
-4.0702 dosshi	-0.0626
-4.0702 dotanay	-0.0628
-4.0702 dowrite	0.0000
-3.5847 drishti	-0.0612
-4.0702 drishtite	-0.0628
-4.0702 dristi	-0.0628
-3.4086 dt5	-0.1693
-3.0407 du	-0.1003
-4.0702 dub	-0.0628
-4.0702 dube	-0.0625
-4.0702 dubiache	-0.0628
-4.0702 dubiche	-0.0622
-4.0702 dubiya	-0.0627
-4.0702 duchokhe	-0.0627
-4.0702 duchokhei	-0.0584
-4.0702 dudh	-0.0627
-3.5847 duhaat	-0.0616
-3.1076 dui	-0.0843
-4.0702 duibar	-0.0624
-4.0702 duita	-0.0628
-4.0702 duivabei	-0.0625
-4.0702 dujon	-0.0627
-4.0702 dujonaate	-0.0627
-3.4086 dujone	-0.1070
-4.0702 dukhe	0.0000
-4.0702 dukhi	-0.0607
-3.2837 dukkho	-0.0960
-4.0702 dulecho	0.0000
-3.5847 duliteche	-0.1326
-4.0702 dunia	-0.0627
-4.0702 dupaye	-0.0628
-4.0702 dupuer	-0.0628
-4.0702 dupur	0.0000
-3.4086 dur	-0.0619
-2.8444 dure	-0.0710
-4.0702 durer	0.0000
-4.0702 durey	-0.0624
-4.0702 durgam	-0.0627
-3.5847 duronto	-0.0628
-4.0702 durrvo	-0.0627
-4.0702 durutte	0.0000
-4.0702 dushahosher	-0.0628
-4.0702 dushtu	-0.0628
-4.0702 dustor	0.0000
-3.1076 duti	-0.0832
-3.5847 duto	-0.0618
-4.0702 duur	0.0000
-4.0702 dya	-0.0628
-4.0702 dylan	-0.0617
-2.0532 e	-0.0624
-4.0702 eashe	-0.0626
-4.0702 ebadat	-0.0622
-3.4086 ebar	-0.0587
-4.0702 ebare	-0.0624
-4.0702 ebareo	-0.0615
-3.4086 ebarer	-0.0624
-4.0702 ebhabe	-0.0624
-3.5847 ebhabei	-0.0628
-2.8444 ebong	-0.0580
-3.5847 eder	-0.0614
-4.0702 eeee	-0.0626
-3.5847 egaro	-0.0628
-4.0702 egie	0.0000
-4.0702 egiye	0.0000
-2.1299 ei	-0.0553
-3.1076 eid	-0.1007
-4.0702 eide	-0.0627
-3.1868 eider	-0.0618
-4.0702 eidjatra	-0.0624
-4.0702 eidul	-0.0628
-4.0702 eidzatra	-0.0603
-3.5847 eigulo	-0.0627
-4.0702 ejonno	-0.0628
-2.6070 ek	-0.0718
-3.0407 eka	-0.0543
-3.5847 ekaki	-0.0577
-3.4086 ekbar	-0.0610
-3.4086 ekdike	-0.0626
-4.0702 ekdin	-0.0624
-4.0702 ekdom	-0.0628
-3.5847 eke	-0.0612
-4.0702 ekela	0.0000
-4.0702 ekhe	0.0000
-3.5847 ekhn	-0.0610
-4.0702 ekhno	-0.0628
-3.5847 ekhon	-0.0600
-3.2837 ekhoni	-0.0608
-3.4086 ekhono	-0.0627
-4.0702 ekhonoi	0.0000
-4.0702 eki	-0.0627
-3.5847 ekjon	-0.0628
-4.0702 ekka	-0.0628
-4.0702 ekla	0.0000
-4.0702 ekmatro	0.0000
-3.5847 ekoi	-0.1324
-4.0702 ekon	0.0000
-4.0702 ekonoi	0.0000
-2.8858 ekta	-0.0618
-4.0702 ektai	0.0000
-4.0702 ektaraate	0.0000
-2.8444 ekti	-0.1008
-3.1076 ektu	-0.0582
-4.0702 ekul	-0.0628
-3.4086 elakay	-0.0618
-4.0702 elam	-0.0628
-3.2837 ele	-0.0546
-4.0702 elei	-0.0627
-4.0702 elo	-0.0625
-4.0702 elokesh	0.0000
-4.0702 elomelo	0.0000
-3.5847 emnitei	-0.0624
-2.9827 emon	-0.0569
-3.4086 emonki	-0.0626
-4.0702 emonta	-0.0619
-4.0702 emonti	-0.0622
-4.0702 ene	0.0000
-4.0702 energy	0.0000
-4.0702 enjoy	-0.0627
-4.0702 epar	-0.0627
-4.0702 epare	0.0000
-2.1004 er	-0.0733
-3.1868 era	-0.0622
-4.0702 ere	0.0000
-3.5847 erokom	-0.0628
-4.0702 erokomi	-0.0628
-4.0702 erpor	-0.0628
-4.0702 eseche	0.0000
-4.0702 esechhe	-0.0626
-2.8444 eshe	-0.0706
-4.0702 eshecehe	0.0000
-4.0702 eshechi	0.0000
-4.0702 eshecho	-0.0628
-4.0702 eshey	-0.0627
-3.1868 esho	-0.0870
-4.0702 esob	-0.0628
-4.0702 esobi	-0.0625
-3.2837 eta	-0.0622
-4.0702 etao	-0.0625
-3.1076 ete	-0.0796
-3.4086 eti	-0.0615
-2.8858 eto	-0.1049
-4.0702 etoTai	-0.0628
-4.0702 etodin	-0.0625
-4.0702 etota	0.0000
-4.0702 etotai	0.0000
-4.0702 etuk	-0.0613
-4.0702 eunichef	-0.0627
-4.0702 everyday	-0.0625
-4.0702 exercise	-0.0625
-3.5847 ey	-0.1328
-3.5847 fagun	-0.0617
-4.0702 falgune	-0.0627
-4.0702 faltu	0.0000
-3.5847 fan	-0.0594
-4.0702 fashir	-0.0628
-4.0702 fastfood	-0.0628
-4.0702 february	0.0000
-4.0702 felchi	0.0000
-3.5847 fele	-0.0614
-4.0702 feli	0.0000
-4.0702 felse	0.0000
-4.0702 fenaiya	-0.0628
-4.0702 ferano	0.0000
-4.0702 ferari	-0.0628
-4.0702 ferena	0.0000
-4.0702 ferot	-0.0628
-4.0702 fesbooke	-0.0628
-4.0702 fesbuker	-0.0628
-4.0702 film	-0.0594
-4.0702 filtering	-0.0628
-4.0702 firao	0.0000
-3.2837 firbe	-0.0924
-4.0702 firbena	0.0000
-3.2837 fire	-0.0610
-4.0702 firechi	0.0000
-4.0702 fireo	-0.0628
-4.0702 firey	-0.0622
-3.5847 firiye	-0.1327
-4.0702 firlona	0.0000
-4.0702 firte	0.0000
-3.5847 flat	-0.1290
-4.0702 fokir	-0.0607
-4.0702 folaae	-0.0628
-4.0702 folafoler	-0.0614
-4.0702 fole	-0.0628
-4.0702 footpath	-0.0623
-4.0702 for	0.0000
-4.0702 forame	-0.0628
-4.0702 form	-0.0590
-4.0702 forrsha;	-0.0628
-3.5847 foshol	-0.0628
-4.0702 fosholrokkha	-0.0626
-4.0702 fota	0.0000
-4.0702 fotaae	-0.0628
-4.0702 fote	-0.0626
-4.0702 frend	-0.0628
-3.0407 ful	-0.0614
-4.0702 fule	0.0000
-3.5847 fuliteche	-0.1327
-4.0702 fuliye	-0.0628
-4.0702 full	-0.0628
-4.0702 fulo	-0.0628
-4.0702 fulsojja	0.0000
-4.0702 furiye	-0.0625
-4.0702 futche	0.0000
-4.0702 fute	-0.0599
-4.0702 futey	0.0000
-4.0702 gOlmal	-0.0618
-4.0702 gaaan	-0.0626
-4.0702 gaaho	-0.0623
-3.5847 gaalo	-0.1327
-3.1868 gaan	-0.0877
-3.5847 gaaner	-0.0624
-4.0702 gaang	0.0000
-4.0702 gaanger	-0.0628
-4.0702 gaaye	-0.0628
-4.0702 gache	-0.0625
-4.0702 gahi	-0.0625
-4.0702 gaini	0.0000
-4.0702 gaito	0.0000
-4.0702 gaiya	0.0000
-4.0702 galagali	-0.0626
-4.0702 gale	0.0000
-4.0702 gali	0.0000
-3.5847 gan	-0.0621
-4.0702 gane	0.0000
-4.0702 ganero	-0.0628
-4.0702 gang	-0.0590
-4.0702 ganger	0.0000
-4.0702 gaowa	-0.0626
-3.5847 gari	-0.0612
-4.0702 garod	-0.0590
-4.0702 gashe	-0.0627
-4.0702 gatiba	-0.0620
-4.0702 gay	0.0000
-3.1076 gayer	-0.1321
-3.5847 geche	-0.0626
-4.0702 gechey	0.0000
-4.0702 gechi	0.0000
-4.0702 geetite	0.0000
-3.5847 gela	-0.0627
-4.0702 gelam	-0.0623
-2.8858 gele	-0.0592
-4.0702 gelei	-0.0628
-4.0702 gelen	-0.0627
-3.0407 gelo	-0.0797
-4.0702 gese	-0.0603
-4.0702 geshe	-0.0628
-4.0702 gesilam	0.0000
-4.0702 geye	-0.0625
-4.0702 ghaam	-0.0628
-4.0702 ghar	-0.0627
-4.0702 ghate	-0.0628
-4.0702 ghater	-0.0628
-4.0702 ghire	0.0000
-3.5847 ghono	-0.0627
-3.1076 ghonta	-0.0622
-4.0702 ghontar	-0.0628
-4.0702 ghor	-0.0623
-4.0702 ghore	-0.0628
-4.0702 ghori	-0.0628
-4.0702 ghormukho	-0.0626
-4.0702 ghorta	-0.0624
-4.0702 ghoshe	0.0000
-4.0702 ghoshiache	0.0000
-3.5847 ghoshona	-0.0624
-4.0702 ghotbe	-0.0628
-4.0702 ghotche	0.0000
-4.0702 ghote	-0.0628
-4.0702 ghotona	-0.0628
-4.0702 ghuchabo	-0.0621
-4.0702 ghuira	-0.0627
-4.0702 ghulghulite	-0.0628
-3.4086 ghum	-0.1066
-4.0702 ghumaae	0.0000
-4.0702 ghumate	0.0000
-4.0702 ghumie	-0.0626
-4.0702 ghumiye	0.0000
-4.0702 ghumonto	0.0000
-3.5847 ghun	-0.0587
-3.2837 ghur	-0.1325
-3.5847 ghurar	-0.0596
-3.4086 ghure	-0.0626
-4.0702 ghuri	0.0000
-4.0702 ghuroghuri	-0.0627
-4.0702 ghurte	0.0000
-4.0702 gileche	-0.0621
-3.5847 giri	-0.0628
-4.0702 girrjay,mohila	-0.0628
-4.0702 giya	0.0000
-3.1868 giye	-0.0886
-4.0702 giye,mudir	-0.0627
-4.0702 giyechilen	-0.0628
-4.0702 giyechilo	0.0000
-3.1076 go	-0.0566
-4.0702 goanese	-0.0628
-4.0702 gobeshoker	-0.0625
-4.0702 gobhir	-0.0627
-4.0702 gochaye	-0.0607
-4.0702 godhuli	-0.0628
-4.0702 godhulir	-0.0625
-3.5847 gogone	-0.0628
-4.0702 gohin	-0.0628
-4.0702 gohine	0.0000
-4.0702 goinachi	0.0000
-4.0702 gola	0.0000
-4.0702 golap	0.0000
-4.0702 gole	-0.0625
-4.0702 goli	-0.0608
-4.0702 golite	-0.0628
-4.0702 golmal	-0.0618
-4.0702 golpo	0.0000
-4.0702 gondhe	-0.0628
-4.0702 gongai	-0.0628
-4.0702 gonogota	0.0000
-4.0702 google	-0.0628
-4.0702 gophe	-0.0628
-4.0702 gopon	-0.0628
-4.0702 gopone	-0.0628
-4.0702 goponkotha	-0.0625
-4.0702 gor	-0.0627
-4.0702 gora	-0.0628
-4.0702 goray	-0.0628
-3.5847 gore	-0.1327
-4.0702 goreche	-0.0627
-4.0702 gori	-0.0627
-4.0702 goriye	-0.0628
-4.0702 gorjai	0.0000
-4.0702 gorjona	0.0000
-4.0702 gorole	0.0000
-3.4086 gorom	-0.1047
-4.0702 gorop	-0.0628
-4.0702 gorto	-0.0601
-3.5847 goru	-0.0628
-4.0702 gosol	0.0000
-4.0702 gosoler	-0.0626
-4.0702 gothon	-0.0621
-4.0702 gotihino	0.0000
-3.2837 goto	-0.1723
-4.0702 gotokal	-0.0627
-4.0702 govirota	-0.0628
-4.0702 goyna	-0.0628
-4.0702 graam	-0.0590
-4.0702 gram	-0.0628
-4.0702 gramer	0.0000
-4.0702 grohon	-0.0625
-4.0702 groupe	-0.0626
-4.0702 gudame	-0.0621
-4.0702 guganto	-0.0628
-4.0702 guitarist	-0.0628
-4.0702 gula	-0.0622
-4.0702 gular	-0.0622
-4.0702 guli	-0.0628
-4.0702 gulite	-0.0621
-2.8858 gulo	-0.0848
-3.2837 gulor	-0.0610
-4.0702 gulote	-0.0628
-3.5847 gulute	-0.0624
-4.0702 gum	-0.0628
-3.5847 gumre	-0.0626
-4.0702 gungotomaner	-0.0625
-3.5847 gur	-0.0600
-4.0702 gurebali	0.0000
-4.0702 gurgur	-0.0601
-4.0702 guru	-0.0628
-4.0702 haake	-0.0628
-4.0702 haar	-0.0628
-4.0702 haaraiya	-0.0628
-4.0702 haare	0.0000
-4.0702 haariye	0.0000
-4.0702 haashi	0.0000
-3.4086 haat	-0.0624
-4.0702 haate	-0.0627
-4.0702 haater	0.0000
-4.0702 haath	-0.0628
-4.0702 haayre	-0.0627
-4.0702 habo	0.0000
-4.0702 hache	0.0000
-4.0702 haere	0.0000
-4.0702 haha	-0.0626
-4.0702 hahaaha	0.0000
-4.0702 hahakaar	0.0000
-4.0702 hai	-0.0628
-4.0702 haila	-0.0627
-3.4086 hajar	-0.0616
-4.0702 hakiche	0.0000
-4.0702 hal	-0.0622
-3.5847 halka	-0.0628
-4.0702 hanahani	-0.0620
-4.0702 haore	-0.0628
-3.5847 hara	-0.0627
-4.0702 haraao	0.0000
-3.5847 harabar	-0.0596
-3.5847 harai	-0.0627
-4.0702 haraiya	-0.0628
-3.5847 harale	-0.0621
-4.0702 haraleo	-0.0626
-4.0702 haralo	0.0000
-3.5847 harano	-0.0628
-4.0702 haranor	0.0000
-4.0702 harao	-0.0624
-4.0702 harie	0.0000
-3.4086 hariye	-0.1077
-4.0702 hasha	0.0000
-4.0702 hashahashi	-0.0628
-4.0702 hashbe	-0.0619
-4.0702 hashe	-0.0628
-4.0702 hashi	-0.0627
-4.0702 hashimukhe	0.0000
-4.0702 hashir	-0.0628
-4.0702 hashite	-0.0627
-4.0702 hashlei	-0.0626
-3.5847 hashona	-0.0619
-3.5847 hasi	-0.1328
-4.0702 haspatal	-0.0626
-3.4086 hat	-0.0626
-4.0702 hata	0.0000
-3.4086 hate	-0.0622
-4.0702 hater	-0.0628
-4.0702 hath	-0.0622
-4.0702 hathte	-0.0628
-4.0702 hatte	0.0000
-4.0702 hatujol	0.0000
-4.0702 hauai	0.0000
-4.0702 hauskipar	-0.0628
-3.4086 hawa	-0.0582
-4.0702 hawar	-0.0628
-4.0702 hawaro	-0.0628
-4.0702 hay	0.0000
-4.0702 haye	0.0000
-4.0702 he	-0.0584
-4.0702 heena	0.0000
-4.0702 helay	0.0000
-4.0702 hell	-0.0618
-4.0702 here	-0.0622
-3.5847 heshe	-0.1326
-3.5847 heshei	-0.1326
-3.5847 heshona	-0.0584
-4.0702 hete	-0.0627
-2.9315 hey	-0.4648
-4.0702 heyali	0.0000
-4.0702 himmot	0.0000
-4.0702 hin	-0.0628
-4.0702 hina	-0.0627
-4.0702 hindu	-0.0589
-4.0702 hisabe	-0.0626
-4.0702 hisebe	-0.0621
-4.0702 hiyaari	0.0000
-4.0702 hiyar	-0.0618
-3.5847 ho	-0.0610
-4.0702 hobar	-0.0627
-2.6070 hobe	-0.0477
-4.0702 hobe,	-0.0621
-4.0702 hobo	0.0000
-3.0407 hocche	-0.0775
-4.0702 hoccho	-0.0593
-3.5847 hoe	-0.0618
-4.0702 hoeche	0.0000
-4.0702 hohhh	-0.0627
-3.5847 hoi	-0.0588
-4.0702 hoibo	0.0000
-4.0702 hoiche	0.0000
-4.0702 hoichilo	0.0000
-4.0702 hoile	0.0000
-4.0702 hoite	-0.0625
-3.5847 hoiya	-0.1327
-3.5847 hok	-0.0585
-4.0702 holam	-0.0628
-3.2837 hole	-0.0621
-3.2837 holeo	-0.0617
-2.8066 holo	-0.0588
-4.0702 holud	-0.0625
-4.0702 hora	-0.0628
-4.0702 hori	0.0000
-4.0702 horoshe	0.0000
-3.4086 hotath	-0.0557
-3.1076 hote	-0.1061
-4.0702 hotel	-0.0628
-4.0702 hothat	-0.0628
-4.0702 hoto	-0.0614
-4.0702 hou	-0.0628
-4.0702 houate	-0.0628
-4.0702 houay	-0.0628
-3.1868 house	-0.0827
-4.0702 houya	-0.0627
-4.0702 houyaar	-0.0628
-3.2837 houyar	-0.0611
-4.0702 houyate	-0.0628
-2.6305 hoy	-0.0511
-4.0702 hoya	-0.0627
-4.0702 hoyba	0.0000
-4.0702 hoyche	0.0000
-2.6070 hoye	-0.0583
-3.0407 hoyeche	-0.0610
-4.0702 hoyechi	-0.0627
-4.0702 hoyechilo	-0.0628
-4.0702 hoyeo	-0.0621
-4.0702 hoyki	0.0000
-4.0702 hoyna	0.0000
-4.0702 hoyni	0.0000
-4.0702 hoyrani	-0.0627
-3.1868 hoyto	-0.0596
-3.4086 hridoy	-0.0626
-3.5847 hridoye	-0.0628
-3.5847 hridoyer	-0.0625
-4.0702 hridoyo	-0.0627
-4.0702 hridoyri	-0.0627
-3.4086 hu	-0.1079
-4.0702 hukum	-0.0628
-4.0702 hushiar	0.0000
-4.0702 i	-0.0627
-4.0702 ibadater	-0.0628
-4.0702 iccha	-0.0601
-4.0702 icche	0.0000
-4.0702 ihader	-0.0626
-4.0702 immature	-0.0626
-4.0702 incubator	-0.0594
-4.0702 inspire	0.0000
-4.0702 international	-0.0626
-3.1868 internet	-0.1174
-4.0702 internete	-0.0628
-4.0702 interneter	0.0000
-4.0702 ishara	-0.0614
-4.0702 isthanio	-0.0628
-4.0702 itihaash	-0.0627
-4.0702 ittadi	-0.0628
-4.0702 iunisef	-0.0628
-4.0702 j	-0.0622
-2.8444 ja	-0.1001
-3.4086 jaa	-0.1068
-4.0702 jaaaa	-0.0627
-4.0702 jaabe	-0.0627
-4.0702 jaabo	-0.0618
-3.4086 jaae	-0.0600
-4.0702 jaage	-0.0619
-4.0702 jaagena	0.0000
-4.0702 jaai	0.0000
-3.5847 jaani	-0.0584
-4.0702 jaano	0.0000
-4.0702 jaar	0.0000
-4.0702 jaare	-0.0628
-3.4086 jaas	-0.1062
-4.0702 jabar	-0.0628
-3.0407 jabe	-0.0554
-4.0702 jabena	-0.0624
-4.0702 jabey	0.0000
-3.2837 jabo	-0.0581
-4.0702 jacche	-0.0628
-4.0702 jacchi	0.0000
-3.5847 jadu	-0.1327
-4.0702 jadur	-0.0628
-4.0702 jae	-0.0622
-3.5847 jaega	-0.0610
-3.5847 jaena	-0.0617
-3.5847 jaflong	-0.0587
-4.0702 jage	-0.0593
-4.0702 jagiye	-0.0628
-4.0702 jagorone	-0.0622
-4.0702 jagye	-0.0628
-4.0702 jahar	-0.0628
-3.2837 jai	-0.0618
-4.0702 jaii	0.0000
-4.0702 jaini	0.0000
-4.0702 jaitam	0.0000
-4.0702 jak	-0.0607
-4.0702 jake	-0.0621
-4.0702 jal	-0.0618
-4.0702 jala	0.0000
-4.0702 jalabe	0.0000
-4.0702 jalaise	0.0000
-4.0702 jalao	0.0000
-4.0702 jali	-0.0603
-3.1868 jam	-0.1446
-4.0702 jan	0.0000
-3.2837 jana	-0.0610
-4.0702 janai	0.0000
-4.0702 janan	-0.0628
-4.0702 janao	0.0000
-4.0702 janar	-0.0622
-4.0702 janbahon	-0.0628
-4.0702 janbe	-0.0589
-3.5847 jane	-0.0581
-4.0702 janena	0.0000
-3.0407 jani	-0.0727
-3.0407 janina	-0.0758
-4.0702 janio	0.0000
-4.0702 janiyechen	0.0000
-4.0702 janjot	0.0000
-4.0702 janlar	-0.0628
-3.4086 jano	-0.0617
-4.0702 jante	0.0000
-3.0407 jao	-0.0769
-4.0702 japon	0.0000
-4.0702 jar	-0.0622
-3.4086 jara	-0.0627
-4.0702 jare	-0.0628
-4.0702 jater	-0.0628
-4.0702 jati	-0.0628
-3.5847 jatir	-0.0624
-4.0702 jatiy	-0.0608
-4.0702 jatiyota	-0.0628
-4.0702 jatra	-0.0628
-4.0702 jatrayo	0.0000
-3.5847 jatri	-0.1326
-4.0702 jatrir	-0.0614
-4.0702 jaw	-0.0608
-3.4086 jawa	-0.1068
-4.0702 jawar	-0.0614
-2.9827 jay	-0.0600
-4.0702 jaye	0.0000
-4.0702 jayeki	0.0000
-4.0702 jayga	-0.0614
-3.4086 jaygay	-0.0590
-4.0702 jayna	0.0000
-2.2230 je	-0.0571
-3.5847 jedike	-0.0611
-3.5847 jege	-0.1327
-4.0702 jehetu	-0.0621
-4.0702 jekhanai	-0.0603
-3.4086 jekhane	-0.0614
-4.0702 jekhanei	0.0000
-4.0702 jekono	-0.0621
-4.0702 jela	-0.0627
-4.0702 jelar	-0.0628
-4.0702 jele	0.0000
-4.0702 jelechilo	0.0000
-3.4086 jemon	-0.0627
-3.5847 jene	-0.0594
-2.6553 jeno	-0.0683
-4.0702 jeta	-0.0626
-4.0702 jetaam	0.0000
-4.0702 jetar	0.0000
-2.8066 jete	-0.0629
-4.0702 jetha	-0.0628
-4.0702 jethay	0.0000
-4.0702 jeto	0.0000
-4.0702 jevabe	-0.0628
-3.5847 jeye	-0.0613
-4.0702 jeyo	0.0000
-4.0702 jhakki-jhamela	0.0000
-4.0702 jhamela	0.0000
-4.0702 jhapot	-0.0627
-4.0702 jhapsa	-0.0625
-4.0702 jhapsha	0.0000
-4.0702 jhijhira	0.0000
-4.0702 jhikimiki	0.0000
-3.5847 jhilmil	-0.0627
-4.0702 jhinik	0.0000
-4.0702 jhod	0.0000
-4.0702 jholano	-0.0627
-3.5847 jhor	-0.0621
-4.0702 jhoraae	-0.0628
-4.0702 jhorae	-0.0628
-3.1868 jhore	-0.0599
-4.0702 jhorer	-0.0628
-4.0702 jhorna	-0.0628
-4.0702 jhornar	0.0000
-4.0702 jhornay	-0.0628
-3.0407 jhoro	-0.5570
-4.0702 jhoto	0.0000
-4.0702 jhuki	-0.0614
-4.0702 jhukite	-0.0627
-4.0702 jhuli	0.0000
-2.9827 jibon	-0.0786
-2.9827 jibone	-0.1097
-4.0702 jiboner	-0.0626
-4.0702 jibono	0.0000
-4.0702 jiggashe	-0.0626
-4.0702 jiggesh	-0.0627
-4.0702 jinis	-0.0625
-4.0702 jinish	-0.0617
-4.0702 jinisher	-0.0628
-4.0702 joaar	-0.0625
-4.0702 joan	-0.0628
-4.0702 jobab	-0.0627
-4.0702 jobai	-0.0594
-4.0702 jobe	-0.0625
-4.0702 jochona	-0.0628
-4.0702 jochonaae	0.0000
-4.0702 jodaito	-0.0624
-4.0702 jodhano	-0.0628
-2.4386 jodi	-0.0651
-3.5847 jodio	-0.0622
-4.0702 jodiye	0.0000
-4.0702 jog	-0.0628
-4.0702 jogot	0.0000
-4.0702 jogote	-0.0628
-4.0702 jogoter	-0.0628
-4.0702 johorawte	-0.0628
-4.0702 johre	0.0000
-4.0702 joila	0.0000
-3.5847 jokhn	-0.0620
-4.0702 jokhom	0.0000
-2.6553 jokhon	-0.0811
-3.4086 jokon	-0.0620
-3.4086 jol	-0.0626
-3.4086 jole	-0.0623
-4.0702 joleni	-0.0619
-4.0702 joler	-0.0628
-4.0702 joley	-0.0628
-4.0702 joloche	0.0000
-4.0702 jolodhara	-0.0607
-4.0702 joma	-0.0628
-4.0702 jombe	-0.0627
-4.0702 jome	-0.0628
-4.0702 jomechilo	0.0000
-4.0702 jomi	-0.0628
-4.0702 jomio	-0.0589
-4.0702 jomite	-0.0621
-4.0702 jomiye	-0.0625
-3.4086 jon	-0.0584
-4.0702 jonak	-0.0623
-4.0702 jonaki	-0.0628
-4.0702 jongi	0.0000
-3.5847 jongla	-0.1327
-4.0702 jonmo	0.0000
-4.0702 jonmodin	0.0000
-3.4086 jonne	-0.0588
-2.4708 jonno	-0.0550
-4.0702 jonnoi	-0.0621
-4.0702 jonogoshthi	-0.0627
-4.0702 jonogoshthike	-0.0625
-3.5847 jonogoshthir	-0.0628
-3.1868 jonom	-0.1168
-4.0702 jonopoth	-0.0628
-4.0702 jonoprio	-0.0618
-4.0702 jony	-0.0628
-4.0702 jopo	-0.0623
-4.0702 jor	0.0000
-4.0702 jora	-0.0628
-4.0702 jorabo	0.0000
-4.0702 jorate	-0.0626
-4.0702 jorbe	-0.0628
-4.0702 joripe	-0.0628
-4.0702 joriye	0.0000
-4.0702 joro	0.0000
-4.0702 josnae	-0.0628
-4.0702 josona	-0.0627
-4.0702 josonata	-0.0624
-4.0702 jot	-0.0627
-4.0702 jothariti	-0.0627
-2.9315 joto	-0.0605
-4.0702 jotodin	0.0000
-4.0702 jotoi	-0.0626
-3.4086 joton	-0.1700
-4.0702 jotota	0.0000
-4.0702 jouno	-0.0628
-4.0702 joyi	-0.0628
-4.0702 joyogan	0.0000
-4.0702 judate	-0.0628
-4.0702 juddhe	0.0000
-4.0702 juddho	-0.0628
-4.0702 jug	-0.0628
-4.0702 juge	-0.0622
-4.0702 jugeo	-0.0628
-4.0702 julai	-0.0614
-4.0702 july	-0.0614
-3.4086 jure	-0.0617
-4.0702 jurei	-0.0624
-4.0702 jutar	-0.0627
-4.0702 juttam	0.0000
-4.0702 jyano	-0.0627
-4.0702 k	0.0000
-4.0702 k0re	-0.0618
-3.5847 kaache	-0.0620
-4.0702 kaadi	0.0000
-4.0702 kaadto	-0.0625
-4.0702 kaaj	-0.0601
-4.0702 kaak	-0.0590
-4.0702 kaal	0.0000
-4.0702 kaalo	0.0000
-4.0702 kaarkhana	-0.0617
-4.0702 kabadi	0.0000
-4.0702 kabbe	-0.0627
-3.5847 kabita	-0.0627
-3.0407 kacha	-0.1721
-4.0702 kachakachi	-0.0614
-2.7718 kache	-0.0728
-4.0702 kachei	-0.0627
-4.0702 kacher	-0.0628
-4.0702 kachhe	0.0000
-4.0702 kachi	0.0000
-4.0702 kadena	-0.0623
-4.0702 kader	-0.0628
-4.0702 kadhe	-0.0617
-4.0702 kadi	-0.0626
-4.0702 kagoj	-0.0613
-4.0702 kagojer	-0.0628
-4.0702 kahini	-0.0624
-2.7396 kaj	-0.0594
-4.0702 kaj;vwk	-0.0628
-3.4086 kajer	-0.0626
-4.0702 kajkorrm	-0.0621
-4.0702 kajo	0.0000
-4.0702 kajol	-0.0628
-4.0702 kal	-0.0584
-4.0702 kalO	0.0000
-4.0702 kalO,	-0.0584
-4.0702 kala	-0.0628
-4.0702 kalar	0.0000
-4.0702 kalchar	-0.0594
-3.4086 kalo	-0.0621
-4.0702 kaloy	0.0000
-4.0702 kaman	-0.0628
-4.0702 kamna	-0.0601
-4.0702 kamonaae	0.0000
-4.0702 kamonay	0.0000
-4.0702 kamone	0.0000
-4.0702 kamor	-0.0628
-4.0702 kamrabe	0.0000
-3.2837 kandari	-0.0568
-3.1868 kande	-0.1163
-3.5847 kandheya	-0.1328
-4.0702 kandte	-0.0628
-4.0702 kanna	-0.0628
-3.2837 kano	-0.0613
-4.0702 kantar	-0.0628
-4.0702 kaoke	0.0000
-4.0702 kaounchilorder	-0.0627
-3.5847 kaounsilorder	-0.0626
-4.0702 kaounsilorra	0.0000
-4.0702 kapon	-0.0628
-4.0702 kar	-0.0621
-3.5847 kara	-0.0605
-4.0702 kare	0.0000
-4.0702 karishnager	-0.0627
-4.0702 karjadesh	-0.0628
-4.0702 karkhana	-0.0628
-3.1868 karo	-0.0623
-3.4086 karon	-0.0622
-2.9315 karone	-0.0720
-4.0702 karshnangara	-0.0628
-4.0702 kashbon	-0.0622
-4.0702 kashbone	0.0000
-4.0702 katate	0.0000
-4.0702 katay	-0.0627
-4.0702 katbo	0.0000
-3.1868 kate	-0.1098
-4.0702 katena	0.0000
-4.0702 katha	-0.0613
-4.0702 kathokota	0.0000
-4.0702 katiye	-0.0628
-4.0702 kato	-0.0627
-4.0702 katokhani	0.0000
-4.0702 kauke	-0.0624
-4.0702 kaunsiler	-0.0628
-4.0702 kaunsilor	-0.0626
-4.0702 kawran	-0.0628
-2.6553 ke	-0.0567
-4.0702 ke,maiking	-0.0621
-4.0702 keboli	0.0000
-4.0702 kedaray	-0.0622
-4.0702 kede	0.0000
-4.0702 kemon	0.0000
-4.0702 kemone	-0.0622
-3.4086 ken	-0.1056
-4.0702 kena	-0.0628
-4.0702 kenakata	-0.0626
-4.0702 kenakatay	-0.0626
-4.0702 kendre	-0.0627
-2.6553 keno	-0.0795
-4.0702 keo	-0.0613
-3.4086 kere	-0.1078
-4.0702 kesh	-0.0585
-4.0702 keta	0.0000
-3.4086 kete	-0.0621
-4.0702 keteche	-0.0622
-4.0702 ketokir	-0.0627
-3.1076 keu	-0.1323
-3.5847 kew	-0.0625
-4.0702 khabar	-0.0622
-4.0702 khaben	-0.0628
-4.0702 khabo	0.0000
-4.0702 khachae	0.0000
-4.0702 khache	0.0000
-4.0702 khalader	-0.0621
-4.0702 khalena	-0.0628
-4.0702 khali	0.0000
-4.0702 khamaar	0.0000
-4.0702 khana	-0.0628
-4.0702 khane	-0.0623
-3.4086 khani	-0.0625
-4.0702 khap	-0.0628
-3.1868 kharap	-0.0605
-4.0702 khata	0.0000
-4.0702 khatae	-0.0628
-4.0702 khate	-0.0622
-4.0702 khater	-0.0614
-4.0702 khawa	0.0000
-4.0702 khay	0.0000
-4.0702 khela	-0.0626
-4.0702 khelaa	0.0000
-3.2837 khelar	-0.0946
-4.0702 khelatake	-0.0628
-4.0702 khelay	0.0000
-4.0702 khele	-0.0613
-4.0702 khelen	0.0000
-4.0702 kheli	0.0000
-4.0702 khelo	-0.0628
-3.5847 kheloyar	-0.0627
-4.0702 kheloyarder	-0.0627
-3.4086 kheloyarer	-0.0627
-4.0702 kheloyari	-0.0627
-4.0702 khet	-0.0614
-4.0702 khete	-0.0628
-4.0702 kheten	0.0000
-4.0702 khetro	-0.0628
-4.0702 kheya	-0.0618
-4.0702 khob	-0.0628
-4.0702 khobo	-0.0628
-3.4086 khobor	-0.0626
-4.0702 khod	-0.0628
-4.0702 khoda	0.0000
-4.0702 khoje	0.0000
-4.0702 khojo	0.0000
-3.1076 khoka	-0.0533
-4.0702 khokar	0.0000
-4.0702 khokaro	-0.0625
-4.0702 khola	-0.0627
-4.0702 khoma	0.0000
-4.0702 khomotashin	-0.0626
-4.0702 khon	-0.0627
-4.0702 khone	0.0000
-4.0702 khoni	0.0000
-4.0702 khonj	0.0000
-4.0702 khonjor	0.0000
-4.0702 khopay	0.0000
-4.0702 khoti	-0.0627
-4.0702 khotigrostho	-0.0627
-4.0702 khotigrosto	-0.0628
-4.0702 khotikor	-0.0628
-4.0702 khotir	-0.0627
-4.0702 khottow	-0.0601
-2.8066 khub	-0.1054
-3.1076 khuje	-0.0802
-3.5847 khuji	-0.0622
-4.0702 khujte	0.0000
-4.0702 khukur	-0.0621
-3.4086 khule	-0.1081
-4.0702 khule,	-0.0589
-4.0702 khuli	0.0000
-4.0702 khullo	0.0000
-3.5847 khune	-0.0627
-3.5847 khushi	-0.0621
-4.0702 khushitei	0.0000
-2.1698 ki	-0.0759
-4.0702 kiba	0.0000
-4.0702 kichhu	-0.0628
-2.7718 kichu	-0.0666
-3.4086 kichui	-0.0615
-4.0702 kichute	-0.0627
-4.0702 kilometer	0.0000
-4.0702 kilomiter	-0.0625
-4.0702 kina	-0.0615
-4.0702 kine	-0.0628
-3.5847 kingba	-0.0623
-4.0702 kinte	-0.0628
-2.7396 kintu	-0.0594
-4.0702 kirokom	-0.0627
-4.0702 kiser	0.0000
-4.0702 kisher	-0.0628
-3.5847 kishor	-0.0628
-4.0702 kishori	0.0000
-3.0407 kisu	-0.0999
-4.0702 kivabe	-0.0625
-4.0702 kkhotir	-0.0628
-4.0702 klabe,	-0.0628
-4.0702 klaiver	0.0000
-4.0702 klanti	-0.0628
-4.0702 kn	-0.0628
-4.0702 ko	-0.0628
-3.4086 kobe	-0.1080
-3.4086 kobhu	-0.0617
-4.0702 kobi	-0.0628
-3.2837 kobita	-0.0922
-4.0702 kobitaa	-0.0622
-4.0702 kobore	0.0000
-4.0702 kodal	-0.0618
-4.0702 kohtay	0.0000
-4.0702 koi	0.0000
-4.0702 koibo	0.0000
-4.0702 koira	-0.0628
-3.5847 koiyo	-0.0593
-4.0702 kojon	-0.0628
-4.0702 kokhnoi	-0.0625
-2.9827 kokhono	-0.0908
-4.0702 kokhonoi	-0.0628
-4.0702 kokil	-0.0618
-4.0702 kokkhe	-0.0628
-4.0702 kokkho	-0.0627
-4.0702 kokohono	-0.0623
-4.0702 kokrano	-0.0626
-4.0702 kolahol	-0.0628
-4.0702 kolej	-0.0614
-4.0702 kolija	0.0000
-4.0702 kollane	-0.0622
-4.0702 kolonko	-0.0628
-4.0702 kolorob	-0.0628
-3.5847 kolpona	-0.0609
-4.0702 kolponate	0.0000
-3.4086 kom	-0.0627
-4.0702 komche	0.0000
-4.0702 kome	0.0000
-4.0702 komitike	-0.0628
-4.0702 komitir	-0.0628
-4.0702 komolapur	-0.0627
-4.0702 komor	-0.0628
-4.0702 komte	0.0000
-3.2837 kon	-0.0615
-4.0702 kone	-0.0622
-4.0702 koney	0.0000
-4.0702 konika	0.0000
-4.0702 konna	0.0000
-2.6305 kono	-0.0990
-4.0702 konodin	-0.0628
-4.0702 konodino	0.0000
-4.0702 konovabei	-0.0628
-4.0702 konthasa	-0.0618
-4.0702 kor	0.0000
-3.0407 kora	-0.0600
-3.0407 korar	-0.0607
-4.0702 koraya	0.0000
-3.5847 korbanir	-0.0628
-4.0702 korbe	0.0000
-4.0702 korben	-0.0596
-4.0702 korbi	-0.0618
-4.0702 korbo	-0.0628
-4.0702 korchen	0.0000
-3.4086 korchi	-0.0613
-4.0702 korchilm	0.0000
-4.0702 korchle	-0.0624
-2.1956 kore	-0.0414
-4.0702 kore?	-0.0628
-4.0702 koreche	-0.0628
-3.5847 korechen	-0.0627
-4.0702 korechilo	-0.0628
-4.0702 korecho	0.0000
-4.0702 korel	-0.0628
-4.0702 koren	-0.0628
-4.0702 korena	-0.0585
-4.0702 koreni	-0.0625
-4.0702 koreo	-0.0628
-3.5847 kori	-0.0625
-4.0702 koribe	0.0000
-3.4086 koribo	-0.0595
-3.5847 korile	-0.0614
-4.0702 korim	0.0000
-3.5847 koriya	-0.0624
-4.0702 koriye	-0.0626
-4.0702 korlamre	-0.0627
-3.1868 korle	-0.0881
-4.0702 korlei	0.0000
-4.0702 korleo	-0.0627
-4.0702 korlo	-0.0628
-4.0702 kormojogmo	-0.0628
-4.0702 kormokorta	-0.0614
-4.0702 kormokortara	0.0000
-3.2837 kormoshuchi	-0.0624
-3.5847 kormoshuchir	-0.0621
-4.0702 kormushuchi	-0.0627
-3.2837 koro	-0.0887
-4.0702 korole	0.0000
-4.0702 korrtabyktira	-0.0620
-4.0702 korse	0.0000
-4.0702 kortar	-0.0628
-2.7396 korte	-0.0665
-4.0702 korten	-0.0593
-4.0702 korten,bishesh	-0.0601
-4.0702 kortese	0.0000
-4.0702 korto	0.0000
-3.5847 korum	-0.1296
-4.0702 koshte	-0.0628
-4.0702 koshto	-0.0628
-4.0702 kot	-0.0628
-4.0702 kotadin	0.0000
-4.0702 kotai	0.0000
-2.6816 kotha	-0.0587
-4.0702 kotha!	-0.0626
-4.0702 kothaO	-0.0623
-4.0702 kothaa	0.0000
-3.5847 kothae	-0.0620
-3.5847 kothai	-0.0628
-3.1076 kothao	-0.0617
-4.0702 kothar	-0.0628
-4.0702 kothata	-0.0628
-3.1076 kothay	-0.0581
-4.0702 kotho	0.0000
-3.5847 kothorota	-0.0628
-4.0702 koti	-0.0628
-2.6816 koto	-0.0729
-4.0702 kotoi	-0.0628
-4.0702 kotojon	-0.0627
-4.0702 kotojonae	-0.0627
-3.5847 kotota	-0.0619
-4.0702 kovu	-0.0613
-4.0702 koy	0.0000
-4.0702 koyekdin	-0.0628
-4.0702 koykdin	-0.0621
-4.0702 koykjon	-0.0627
-4.0702 koykti	-0.0626
-4.0702 koyla	0.0000
-4.0702 kretader	-0.0628
-4.0702 kriket	-0.0626
-4.0702 kriketer	-0.0628
-4.0702 kriketke	-0.0624
-4.0702 krishnango	-0.0628
-3.5847 krishnangoder	-0.0613
-4.0702 krishno	-0.0626
-4.0702 krishok	-0.0621
-4.0702 krito	-0.0627
-4.0702 krittim	-0.0628
-4.0702 kromei	-0.0628
-4.0702 kuashate	-0.0624
-4.0702 kudi	-0.0619
-4.0702 kul	-0.0626
-4.0702 kulnesha	-0.0628
-4.0702 kumar	-0.0628
-3.5847 kun	-0.1327
-4.0702 kuwashae	-0.0628
-4.0702 laage	-0.0603
-4.0702 laagena	0.0000
-4.0702 laagi	-0.0627
-4.0702 laga	0.0000
-4.0702 lagaise	0.0000
-4.0702 lagaisey	-0.0628
-4.0702 lagar	-0.0628
-4.0702 lagbena	0.0000
-4.0702 lagche	0.0000
-2.9315 lage	-0.0856
-3.5847 lagena	-0.0617
-3.5847 lagi	-0.0628
-4.0702 lagle	-0.0618
-4.0702 laglo	0.0000
-4.0702 laigaare	0.0000
-4.0702 laike	-0.0613
-3.4086 lake	-0.1689
-4.0702 lakha	0.0000
-4.0702 lakhpoti	-0.0628
-3.5847 lal	-0.0621
-4.0702 langol	0.0000
-4.0702 last	-0.0594
-4.0702 launch	-0.0628
-4.0702 lav	-0.0618
-4.0702 le	0.0000
-3.2837 lekha	-0.0571
-4.0702 lekhay	-0.0628
-3.5847 lekho	-0.1327
-4.0702 lekhok	-0.0628
-4.0702 lenden	-0.0621
-3.4086 life	-0.0555
-3.5847 liger	-0.0626
-4.0702 light	0.0000
-4.0702 likhe	-0.0628
-4.0702 likhechey	-0.0622
-4.0702 likhechi	0.0000
-4.0702 likhtam	0.0000
-3.5847 likhte	-0.0624
-4.0702 lila	-0.0628
-4.0702 limitti	-0.0627
-3.5847 logon	-0.1327
-4.0702 loho	-0.0625
-3.5847 loi	-0.1326
-4.0702 loiya	-0.0626
-4.0702 lojja	-0.0622
-4.0702 lojjate	-0.0619
-3.4086 lok	-0.0627
-4.0702 lokder	-0.0627
-3.5847 loker	-0.0624
-4.0702 lokera	-0.0627
-3.5847 lokhhoymatra	-0.1327
-4.0702 lokjon	-0.0628
-4.0702 lokjono	-0.0621
-4.0702 lokshen	-0.0625
-4.0702 lonch	-0.0628
-4.0702 longhite	-0.0618
-4.0702 lukano	-0.0620
-3.4086 lukiye	-0.0625
-4.0702 lukochuri	-0.0612
-4.0702 lula	-0.0628
-4.0702 luut	0.0000
-3.5847 m0n	-0.1326
-3.4086 ma	-0.0618
-4.0702 maachi	-0.0607
-4.0702 maajhe	-0.0612
-4.0702 maali	0.0000
-4.0702 maan	-0.0627
-4.0702 maate	0.0000
-4.0702 maathe	0.0000
-3.4086 mach	-0.0609
-4.0702 maddhome	-0.0621
-4.0702 madhobi	-0.0607
-4.0702 madhuro	0.0000
-4.0702 madole	-0.0628
-3.4086 maje	-0.0607
-4.0702 majer	-0.0627
-4.0702 majh	0.0000
-4.0702 majhare	0.0000
-2.6070 majhe	-0.1892
-4.0702 majhi	-0.0618
-4.0702 makhamakhi	0.0000
-4.0702 makhi	0.0000
-4.0702 makhiye	0.0000
-4.0702 mala	0.0000
-4.0702 malar	0.0000
-4.0702 malik	0.0000
-4.0702 malikder	-0.0626
-4.0702 malum	0.0000
-4.0702 mamo	0.0000
-4.0702 mana	0.0000
-4.0702 manbo	0.0000
-4.0702 manda	-0.0603
-4.0702 mander	-0.0628
-3.4086 mane	-0.0537
-4.0702 manei	-0.0627
-4.0702 mani	0.0000
-4.0702 manik	-0.0628
-4.0702 mante	0.0000
-3.5847 manus	-0.0616
-2.8066 manush	-0.0928
-3.2837 manusher	-0.0616
-4.0702 manushgulor	-0.0628
-4.0702 manushke	-0.0628
-4.0702 mar	0.0000
-4.0702 mara	0.0000
-4.0702 marie	-0.0628
-4.0702 marjona	-0.0626
-4.0702 markin	-0.0628
-4.0702 marte	0.0000
-3.5847 mash	-0.0590
-4.0702 masher	-0.0628
-4.0702 mashul	0.0000
-4.0702 mataal	-0.0607
-4.0702 matalo	0.0000
-4.0702 mathachara	0.0000
-3.5847 mathe	-0.0617
-4.0702 mati	0.0000
-4.0702 matie	-0.0628
-3.4086 matir	-0.0626
-4.0702 matite	-0.0628
-4.0702 matlami	0.0000
-4.0702 matlo	-0.0628
-3.5847 matra	-0.0627
-4.0702 matri	0.0000
-4.0702 matrimontri	-0.0628
-3.5847 matro	-0.0627
-4.0702 maya	0.0000
-3.5847 mayer	-0.0627
-4.0702 mayor	-0.0628
-4.0702 mdekhi	0.0000
-4.0702 me	-0.0627
-3.2837 mega	-0.1725
-2.8858 megh	-0.1028
-3.4086 meghe	-0.0602
-4.0702 megher	-0.0626
-4.0702 meghera	-0.0625
-4.0702 megherao	-0.0627
-4.0702 meghero	0.0000
-4.0702 meghla	0.0000
-4.0702 meghrer	-0.0628
-4.0702 mejas	-0.0626
-4.0702 mekhe	0.0000
-4.0702 mela	0.0000
-3.4086 mele	-0.0612
-4.0702 melechi	-0.0593
-4.0702 meley	0.0000
-4.0702 mellei	-0.0623
-4.0702 mene	-0.0613
-4.0702 meramot	0.0000
-4.0702 meramoter	-0.0621
-4.0702 mere	-0.0628
-4.0702 mereche	-0.0628
-4.0702 mero	0.0000
-4.0702 mes	-0.0627
-4.0702 messi	-0.0620
-4.0702 mete	-0.0628
-4.0702 metho	-0.0624
-4.0702 methopoth	-0.0590
-4.0702 meyadi	0.0000
-4.0702 meye	0.0000
-4.0702 meyeder	-0.0624
-4.0702 meyeti	-0.0626
-4.0702 meyorer	-0.0627
-4.0702 mi	-0.0585
-3.4086 miche	-0.0611
-4.0702 michhe	-0.0628
-3.5847 milbo	-0.0599
-4.0702 mile	-0.0625
-4.0702 miliye	-0.0626
-4.0702 milon	0.0000
-4.0702 minit	-0.0594
-4.0702 minoti	-0.0627
-4.0702 mishe	-0.0628
-4.0702 mishiye	-0.0613
-4.0702 mishti	-0.0626
-4.0702 missahla	0.0000
-4.0702 misti	-0.0601
-4.0702 mitha	-0.0628
-4.0702 mitite	0.0000
-4.0702 mittha	-0.0628
-4.0702 mitthe	0.0000
-2.8066 moddhe	-0.0549
-4.0702 moddhei	-0.0627
-4.0702 moddho	-0.0627
-4.0702 moder	-0.0627
-4.0702 modhu	0.0000
-4.0702 modhumoy	-0.0622
-4.0702 modhy	-0.0618
-3.2837 modhye	-0.0623
-4.0702 modhyei	-0.0584
-4.0702 modira	0.0000
-4.0702 mogno	0.0000
-4.0702 mohasorok	-0.0628
-4.0702 mohavar	0.0000
-4.0702 mohidul	-0.0627
-3.5847 moja	-0.0620
-4.0702 mokabila	-0.0608
-4.0702 mokabilay	-0.0621
-4.0702 mol	0.0000
-4.0702 molla	-0.0618
-4.0702 mom	0.0000
-2.4086 mon	-0.0750
-4.0702 monche	-0.0628
-4.0702 mondire	-0.0626
-4.0702 mondo	-0.0620
-2.4878 mone	-0.0639
-2.7396 moner	-0.0692
-3.4086 moneri	-0.0625
-4.0702 monete	-0.0625
-3.5847 money	-0.0625
-4.0702 moneyplant	0.0000
-4.0702 monika	0.0000
-3.5847 monitoring	-0.0628
-4.0702 mono	-0.0622
-4.0702 monre	-0.0628
-3.5847 monta	-0.0625
-4.0702 montri	-0.0628
-2.8858 mor	-0.0677
-4.0702 mora	-0.0620
-4.0702 morbo	-0.0589
-3.5847 more	-0.0617
-4.0702 morena	0.0000
-3.4086 mori	-0.0597
-4.0702 morich	0.0000
-4.0702 moriche	-0.0628
-4.0702 morison	-0.0594
-4.0702 morisoner	0.0000
-4.0702 morning	-0.0628
-3.2837 moron	-0.0587
-4.0702 moronbedhi	-0.0626
-3.5847 morone	-0.0627
-4.0702 moroner	-0.0628
-4.0702 morrzadai	-0.0624
-4.0702 morte	0.0000
-4.0702 moru	-0.0628
-4.0702 morubhumi	0.0000
-3.5847 mosha	-0.0628
-3.5847 mosto	-0.0621
-4.0702 mota	-0.0628
-4.0702 motamot	-0.0628
-3.5847 motamoti	-0.0627
-4.0702 motamuti	-0.0628
-4.0702 mote	0.0000
-2.8444 moto	-0.0598
-4.0702 motoi	-0.0628
-4.0702 moton	0.0000
-4.0702 motor	0.0000
-3.5847 motto	-0.0599
-4.0702 moushume	-0.0621
-4.0702 mowno	-0.0628
-4.0702 moy	0.0000
-4.0702 moyna	-0.0627
-4.0702 mridu	0.0000
-4.0702 mucha	-0.0628
-3.4086 muche	-0.0614
-4.0702 muchenaa	0.0000
-4.0702 muhurte	-0.0626
-4.0702 muhurto	0.0000
-4.0702 mui	-0.0626
-3.4086 mukh	-0.1080
-3.5847 mukhe	-0.0612
-4.0702 mukher	-0.0628
-4.0702 mukhero	-0.0627
-4.0702 mukhete	0.0000
-4.0702 mukhkhani	0.0000
-3.5847 mukhomukhi	-0.0584
-4.0702 mukhorito	-0.0618
-3.2837 mukhoro	-1.3974
-4.0702 muktaa	-0.0627
-4.0702 mukte	0.0000
-4.0702 muktipon	0.0000
-4.0702 mukto	-0.0625
-4.0702 mullo	-0.0620
-4.0702 mulok	-0.0628
-4.0702 muly	-0.0624
-4.0702 muslim	-0.0619
-2.0469 na	-0.0565
-4.0702 naaki	0.0000
-3.4086 naam	-0.0560
-4.0702 naao	0.0000
-4.0702 naari	0.0000
-4.0702 nachai	0.0000
-4.0702 nachale	0.0000
-4.0702 nache	0.0000
-4.0702 nachena	-0.0627
-4.0702 naee	0.0000
-4.0702 nahi	0.0000
-4.0702 nahoy	0.0000
-3.0407 nai	-0.0591
-4.0702 naiyor	-0.0628
-4.0702 najuko	-0.0628
-4.0702 nakal	0.0000
-4.0702 naki	-0.0627
-4.0702 nako	0.0000
-4.0702 nakol	0.0000
-4.0702 nalar	-0.0627
-4.0702 nalishe	0.0000
-4.0702 nam	-0.0627
-4.0702 namao	-0.0585
-4.0702 nambo	-0.0621
-4.0702 name	-0.0627
-4.0702 namer	-0.0625
-4.0702 nami	0.0000
-4.0702 nana	-0.0625
-3.5847 nanan	-0.0625
-4.0702 nandini	-0.0623
-4.0702 nangta	-0.0627
-4.0702 nanike	-0.0627
-3.4086 nao	-0.0561
-4.0702 narchi	0.0000
-4.0702 nare	0.0000
-4.0702 narom	-0.0628
-4.0702 nath	-0.0625
-4.0702 nathar	-0.0627
-4.0702 natin	0.0000
-4.0702 nato	-0.0627
-4.0702 natok	-0.0626
-4.0702 natokay	-0.0628
-4.0702 nayon	-0.0627
-3.4086 ne	-0.1071
-4.0702 neche	0.0000
-3.4086 neel	-0.0622
-4.0702 neela	-0.0627
-4.0702 neelche	-0.0625
-2.8858 nei	-0.1031
-4.0702 neiko	0.0000
-4.0702 neme	-0.0626
-3.5847 nemeche	-0.0602
-4.0702 nen	0.0000
-4.0702 neoya	-0.0622
-4.0702 neoyai	0.0000
-4.0702 neshae	-0.0593
-4.0702 neshay	0.0000
-3.5847 neta	-0.0627
-3.5847 netara	-0.0622
-4.0702 nevar	-0.0623
-4.0702 newyourker	-0.0622
-4.0702 ni	0.0000
-4.0702 nia	0.0000
-4.0702 niacho	-0.0603
-4.0702 nibhe	0.0000
-3.4086 nibir	-0.0591
-4.0702 nibo	-0.0584
-4.0702 nicche	0.0000
-3.5847 niche	-0.0596
-4.0702 nichito	0.0000
-4.0702 nidhone	-0.0618
-4.0702 nie	0.0000
-4.0702 nigroho	-0.0628
-4.0702 nije	0.0000
-3.2837 nijeder	-0.0962
-4.0702 nijei	-0.0627
-3.5847 nijeke	-0.0627
-3.1868 nijer	-0.0624
-4.0702 nijhum	-0.0626
-3.5847 nikhilesh	-0.0628
-3.4086 nil	-0.0625
-4.0702 nila	-0.0589
-3.5847 nile	-0.0579
-4.0702 nilima	0.0000
-4.0702 nilimai	0.0000
-4.0702 nilimay	0.0000
-4.0702 nill	-0.0628
-4.0702 nimeshe	-0.0627
-4.0702 niom	-0.0628
-4.0702 niomito	-0.0626
-4.0702 niontrone	-0.0626
-4.0702 nir	-0.0608
-4.0702 niralay	0.0000
-4.0702 nirapottake	-0.0628
-4.0702 nirapottao	-0.0627
-4.0702 nirbaak	-0.0628
-4.0702 nirbish	-0.0626
-4.0702 nirdesh	0.0000
-4.0702 nirdeshe	-0.0627
-3.5847 nirdeshona	-0.0628
-3.5847 nirghum	-0.0625
-4.0702 nirjol	-0.0627
-4.0702 nirman	-0.0628
-4.0702 nirmane	-0.0627
-4.0702 nirnoye	-0.0628
-4.0702 nirnoyer	-0.0614
-4.0702 nirobe	-0.0628
-4.0702 nirobota	-0.0628
-4.0702 nirupama	0.0000
-4.0702 nischoi	0.0000
-4.0702 nishachor	-0.0628
-4.0702 nishashe	-0.0621
-3.4086 nishchit	-0.1720
-4.0702 nishchup	0.0000
-3.5847 nishi	-0.0611
-4.0702 nishite	-0.0628
-4.0702 nishithe	-0.0627
-4.0702 nishitho	-0.0628
-4.0702 nisongo	-0.0628
-4.0702 nissho	0.0000
-3.1868 nite	-0.0856
-4.0702 niten	0.0000
-4.0702 nithur	0.0000
-4.0702 nitimalar	-0.0628
-4.0702 nitite	-0.0627
-4.0702 nito	0.0000
-4.0702 nitto	0.0000
-4.0702 nive	0.0000
-4.0702 nivu	-0.0628
-2.4386 niye	-0.0559
-4.0702 niyotir	-0.0590
-3.5847 nobel	-0.0628
-4.0702 nobino	0.0000
-4.0702 nobo	0.0000
-3.5847 nodi	-0.0627
-3.4086 nodir	-0.1078
-4.0702 nogorbashi	-0.0628
-4.0702 nogore	0.0000
-3.5847 nogorite	-0.0628
-3.4086 noi	-0.0618
-4.0702 noidto	-0.0628
-4.0702 noiko	0.0000
-4.0702 noile	-0.0593
-4.0702 nojirbihin	-0.0627
-4.0702 nojordarir	-0.0622
-4.0702 nojore	-0.0628
-4.0702 norom	0.0000
-4.0702 noshtami	-0.0614
-4.0702 noshto	0.0000
-3.1868 notun	-0.0625
-3.5847 nouka	-0.0617
-4.0702 noukae	-0.0627
-4.0702 noukar	0.0000
-4.0702 noun	-0.0628
-2.9827 noy	-0.0751
-3.4086 noyon	-0.0609
-4.0702 noyonete	0.0000
-4.0702 nupur	-0.0607
-4.0702 nupurer	0.0000
-4.0702 nupuro	0.0000
-4.0702 nutun	0.0000
-2.3176 o	-0.0656
-4.0702 ob	0.0000
-4.0702 obaydul	-0.0628
-4.0702 obelay	-0.0627
-4.0702 obhimai	0.0000
-4.0702 obhiman	0.0000
-4.0702 obhimani	0.0000
-3.5847 obhinoy	-0.0604
-4.0702 obhishaare	0.0000
-4.0702 obisshassho	-0.0626
-4.0702 obogoto	-0.0625
-4.0702 obohela	0.0000
-4.0702 obonam	-0.0628
-3.5847 oboshy	-0.0624
-4.0702 obostha	-0.0627
-4.0702 obsthay,ebarer	-0.0628
-4.0702 ochena	0.0000
-4.0702 ochenar	-0.0628
-4.0702 ochin	0.0000
-3.5847 odekha	-0.0620
-4.0702 oderi	-0.0626
-4.0702 odhidoftorer	-0.0626
-3.5847 odhik	-0.0626
-4.0702 odhikar	0.0000
-4.0702 odhine	-0.0627
-4.0702 odhore	-0.0619
-4.0702 odor	-0.0628
-4.0702 odur	0.0000
-3.5847 oe	-0.0625
-4.0702 offer	-0.0628
-4.0702 office	-0.0590
-4.0702 officer	0.0000
-4.0702 offline	-0.0628
-4.0702 ogadh	0.0000
-3.5847 ogo	-0.0596
-4.0702 ogochalo	0.0000
-4.0702 ogochore	0.0000
-2.6553 oi	-0.0765
-4.0702 ojanae	0.0000
-4.0702 ojogorer	-0.0627
-4.0702 ojotha	0.0000
-4.0702 okaatore	0.0000
-4.0702 okarin	-0.0627
-4.0702 okarono	0.0000
-4.0702 okkhoto	0.0000
-4.0702 okorun	0.0000
-4.0702 okul	-0.0627
-4.0702 olitegolite	-0.0626
-4.0702 olokito	-0.0621
-4.0702 olokkhe	-0.0628
-4.0702 oltai	0.0000
-4.0702 omaboshshay	0.0000
-4.0702 omlan	0.0000
-3.5847 omni	-0.0626
-4.0702 omullo	-0.0620
-4.0702 on	0.0000
-4.0702 onagoto	-0.0628
-4.0702 onake	0.0000
-4.0702 onchole	-0.0628
-3.4086 ondho	-0.0610
-4.0702 ondhokar	-0.0618
-4.0702 ondhotto	-0.0621
-4.0702 ondokar	-0.0625
-2.3806 onek	-0.0748
-4.0702 onek,	-0.0610
-4.0702 onekei	0.0000
-4.0702 oneker	-0.0628
-4.0702 onge	-0.0628
-3.2837 ongsho	-0.0621
-4.0702 ongshoi	-0.0623
-4.0702 ongshokarider	-0.0622
-4.0702 oniomer	-0.0628
-4.0702 onischoyota	-0.0627
-4.0702 onishchoyota	0.0000
-2.9827 online	-0.0602
-4.0702 onner	-0.0628
-3.0407 onno	-0.0615
-3.5847 onnodike	-0.0624
-4.0702 onnotomo	-0.0627
-4.0702 onny	-0.0628
-4.0702 onole	-0.0628
-4.0702 ononno	-0.0627
-4.0702 ononto	0.0000
-4.0702 onortho	-0.0620
-4.0702 onthoheen	0.0000
-4.0702 ontor	-0.0628
-4.0702 ontore	0.0000
-4.0702 ontorjaami	0.0000
-4.0702 onubhobe	0.0000
-4.0702 onubuti	-0.0628
-3.5847 onujaye	-0.1324
-4.0702 onuman	-0.0601
-4.0702 onuraage	0.0000
-4.0702 onurodh	-0.0628
-4.0702 onushari	-0.0628
-4.0702 onushoron	-0.0626
-4.0702 onuvobe	0.0000
-4.0702 onydike	-0.0628
-4.0702 onyra	-0.0628
-4.0702 oongar	0.0000
-4.0702 oooh	-0.0627
-4.0702 opaar	0.0000
-3.5847 opar	-0.0628
-3.4086 oparer	-0.0627
-4.0702 opekkha	-0.0628
-4.0702 opekkhar	0.0000
-4.0702 opobebohar	-0.0622
-4.0702 opochoy	-0.0625
-4.0702 oponjon	0.0000
-4.0702 opor	-0.0622
-4.0702 oporadh	0.0000
-4.0702 oporadher	-0.0622
-4.0702 oporichito	-0.0626
-4.0702 oporiharjo	0.0000
-4.0702 oporup	-0.0627
-4.0702 oproyojonio	0.0000
-2.9827 or	-0.1002
-3.2837 ora	-0.0626
-3.5847 order	-0.1328
-4.0702 ordhek	-0.0628
-3.2837 ore	-0.0589
-4.0702 ortho	-0.0628
-4.0702 oshim	-0.0622
-4.0702 oshob	-0.0628
-4.0702 oshocheton	0.0000
-4.0702 oshohay	-0.0628
-4.0702 oshohaya	-0.0625
-4.0702 oshomoy	0.0000
-4.0702 oshudher	-0.0627
-4.0702 oshustho	-0.0618
-4.0702 osro	-0.0618
-4.0702 osru	-0.0628
-4.0702 ossho	0.0000
-4.0702 othe	-0.0628
-4.0702 othoba	-0.0628
-4.0702 othoi	0.0000
-3.5847 otirikto	-0.0625
-4.0702 otole	-0.0603
-4.0702 otore	0.0000
-4.0702 otoyeb	-0.0627
-4.0702 ovagini	-0.0626
-4.0702 oviggo	-0.0627
-4.0702 ovijan	-0.0628
-4.0702 ovijog	0.0000
-4.0702 oviman	-0.0601
-4.0702 ovinoy	0.0000
-4.0702 ovivabokra	-0.0628
-4.0702 ovyontore	-0.0628
-4.0702 pa	-0.0628
-4.0702 paa	0.0000
-4.0702 paakhi	0.0000
-4.0702 paan	0.0000
-4.0702 paane	-0.0628
-4.0702 paani	0.0000
-4.0702 paar	-0.0590
-4.0702 paare	-0.0627
-4.0702 paater	-0.0628
-3.1868 paaye	-0.0884
-4.0702 paayni	0.0000
-4.0702 pabar	0.0000
-3.4086 pabgi	-0.1726
-4.0702 pabi	-0.0627
-4.0702 pabo	-0.0628
-4.0702 pabona	-0.0628
-4.0702 pach	-0.0628
-4.0702 pachare	-0.0628
-4.0702 pacharer	-0.0628
-4.0702 pada	0.0000
-4.0702 pae	-0.0626
-3.5847 pagla	-0.0628
-4.0702 paglami	0.0000
-4.0702 pagol	-0.0607
-4.0702 paharer	-0.0628
-3.5847 pahari	-0.1328
-3.1076 pai	-0.0781
-4.0702 paiba	-0.0626
-4.0702 paibo	-0.0625
-4.0702 pailam	-0.0589
-4.0702 paini	-0.0627
-4.0702 paithon	-0.0608
-4.0702 pakhaae	0.0000
-4.0702 pakhae	-0.0628
-3.0407 pakhi	-0.0803
-4.0702 pakhider	-0.0628
-4.0702 pakhir	0.0000
-4.0702 pakhira	-0.0628
-4.0702 pakhire	0.0000
-4.0702 pakhna	-0.0627
-4.0702 paki	0.0000
-3.5847 pal	-0.0617
-4.0702 palie	-0.0627
-4.0702 palkhi	0.0000
-4.0702 paloke	-0.0627
-4.0702 palon	-0.0627
-4.0702 palonker	0.0000
-4.0702 pan	-0.0628
-3.4086 pane	-0.1077
-3.2837 pani	-0.0621
-3.5847 panic	-0.0628
-4.0702 pao	0.0000
-4.0702 paoa	-0.0625
-4.0702 paowa	-0.0624
-4.0702 paoya	0.0000
-4.0702 pape	0.0000
-4.0702 par	-0.0618
-4.0702 para	-0.0628
-4.0702 parabar	0.0000
-4.0702 parapar	0.0000
-4.0702 parben	0.0000
-3.5847 parbena	-0.0625
-4.0702 parbona	-0.0628
-3.1076 pare	-0.0567
-4.0702 pare?basstope	-0.0628
-4.0702 pareni	-0.0610
-3.0407 pari	-0.1042
-4.0702 parina	0.0000
-4.0702 parinai	0.0000
-4.0702 paris	-0.0590
-4.0702 parker	-0.0628
-4.0702 parlma	-0.0589
-3.1868 paro	-0.0566
-4.0702 parten	0.0000
-4.0702 parto	-0.0628
-4.0702 parul	-0.0627
-4.0702 pasapashi	-0.0628
-3.5847 pashapashi	-0.0623
-3.5847 pashe	-0.0612
-3.5847 passport	-0.0555
-3.5847 pata	-0.0617
-4.0702 patal	-0.0620
-4.0702 patay	0.0000
-4.0702 pathano	0.0000
-4.0702 pathar	-0.0623
-4.0702 pathe	-0.0628
-4.0702 pathiye	0.0000
-4.0702 pathkhet	0.0000
-3.5847 pathor	-0.0627
-4.0702 pawar	0.0000
-4.0702 pay	0.0000
-3.5847 paye	-0.0628
-3.5847 payer	-0.0628
-3.4086 pc	-0.0623
-4.0702 peashar	0.0000
-4.0702 peke	0.0000
-3.4086 pelam	-0.1057
-3.5847 pele	-0.0625
-4.0702 pelen	0.0000
-3.5847 pelo	-0.0580
-4.0702 pera	-0.0628
-4.0702 perar	0.0000
-4.0702 pere	-0.0589
-3.5847 performance	-0.0612
-4.0702 pesha	-0.0628
-4.0702 petaam	0.0000
-4.0702 pete	-0.0628
-4.0702 petha	-0.0625
-3.4086 peye	-0.0598
-3.5847 peyechi	-0.0626
-4.0702 peyeo	-0.0627
-4.0702 phaaka	-0.0628
-4.0702 phanki	0.0000
-4.0702 pheli	0.0000
-4.0702 phira	-0.0628
-3.4086 phire	-0.0599
-4.0702 phool	-0.0628
-4.0702 phooler	-0.0628
-4.0702 phul	-0.0603
-4.0702 phuto	0.0000
-4.0702 picasso	-0.0628
-4.0702 pichhe	0.0000
-4.0702 pichone	-0.0610
-4.0702 pichu	-0.0628
-4.0702 pichutan	-0.0623
-3.5847 pidim	-0.0625
-4.0702 pion	-0.0628
-4.0702 pirite	0.0000
-4.0702 piriter	0.0000
-4.0702 pirtima	-0.0628
-4.0702 pith	-0.0628
-3.5847 piyaler	-0.1327
-4.0702 pobon	0.0000
-3.5847 pochish	-0.0624
-3.4086 pochonder	-0.1726
-4.0702 pocket	0.0000
-4.0702 poddo	0.0000
-4.0702 podhe	0.0000
-4.0702 podite	0.0000
-4.0702 podma	0.0000
-4.0702 podokkheper	-0.0628
-4.0702 pohate	-0.0625
-4.0702 pohela	0.0000
-4.0702 point	-0.0628
-4.0702 pokhhon	-0.0614
-4.0702 pokkho	-0.0622
-3.5847 pokkhota	-0.0621
-4.0702 polap	0.0000
-4.0702 polashir	0.0000
-4.0702 police	0.0000
-4.0702 polijoma	-0.0628
-4.0702 polok	-0.0627
-4.0702 ponkhi	-0.0625
-4.0702 ponner	-0.0627
-4.0702 ponybahi	-0.0628
-3.1076 por	-0.0624
-3.1076 pora	-0.0824
-4.0702 porajoy	-0.0628
-4.0702 poramorsho	0.0000
-3.5847 poran	-0.0586
-4.0702 porantay	0.0000
-4.0702 porar	-0.0614
-4.0702 porashuna	-0.0621
-4.0702 porayo	-0.0626
-4.0702 porbe	0.0000
-2.7718 pore	-0.0521
-4.0702 poreche	-0.0625
-4.0702 porei	-0.0628
-4.0702 porer	0.0000
-4.0702 pori	-0.0625
-4.0702 poria	0.0000
-4.0702 poribarer	-0.0628
-3.5847 poribesh	-0.0627
-4.0702 poribohon	-0.0628
-4.0702 poriborte	-0.0627
-4.0702 poricchonnota	-0.0627
-4.0702 porichaloka	-0.0613
-3.5847 porichito	-0.0627
-4.0702 porichonnota	-0.0628
-4.0702 porichthitite	-0.0628
-4.0702 porider	-0.0628
-4.0702 poridorshok	-0.0627
-4.0702 poridorshon	-0.0601
-4.0702 porikkha	-0.0627
-4.0702 porikkhar	0.0000
-4.0702 poriman	-0.0627
-4.0702 porimane	-0.0625
-4.0702 porina	-0.0613
-4.0702 porinam	-0.0627
-4.0702 poripaati	0.0000
-4.0702 porishodh	0.0000
-4.0702 poriskar	0.0000
-4.0702 poristhite	-0.0627
-4.0702 poristhiti	-0.0628
-4.0702 poristhitite	-0.0627
-4.0702 porjapto	-0.0628
-4.0702 porjaye	-0.0628
-4.0702 porjobekhhone	-0.0626
-3.5847 porjonto	-0.0624
-4.0702 porle	-0.0608
-4.0702 poro	0.0000
-4.0702 porobaashe	0.0000
-4.0702 porobase	0.0000
-4.0702 poroborti	-0.0621
-3.5847 porobortite	-0.0613
-4.0702 poroshe	0.0000
-4.0702 porrzayer	0.0000
-4.0702 porte	0.0000
-4.0702 porto	0.0000
-4.0702 posha	-0.0628
-4.0702 poshchat	-0.0624
-4.0702 poshubahi	-0.0628
-4.0702 posondo	0.0000
-4.0702 post	0.0000
-2.9315 poth	-0.0617
-3.2837 pothe	-0.0620
-4.0702 pothei	-0.0628
-3.5847 pother	-0.0622
-3.5847 potho	-0.0624
-4.0702 potrikay	-0.0628
-4.0702 praan	-0.0627
-4.0702 praaner	-0.0628
-4.0702 praanopon	0.0000
-4.0702 praantor	-0.0627
-4.0702 prabhate	-0.0625
-4.0702 prachir	-0.0628
-4.0702 prai	-0.0627
-3.2837 pran	-0.0957
-3.4086 prane	-0.0593
-3.5847 praner	-0.0624
-3.5847 prani	-0.0628
-4.0702 pranore	0.0000
-4.0702 prante	0.0000
-4.0702 prantor	0.0000
-4.0702 prantore	0.0000
-3.5847 prapto	-0.0627
-4.0702 prarthona	-0.0625
-3.4086 prathomik	-0.1079
-3.2837 pray	-0.0618
-3.1076 prem	-0.0739
-4.0702 premanjoli	0.0000
-3.4086 preme	-0.1055
-3.1076 premer	-0.0822
-4.0702 presentation	-0.0618
-4.0702 pressure	0.0000
-4.0702 prio	-0.0628
-4.0702 priter	0.0000
-3.1868 prithibi	-0.0616
-4.0702 prithibike	0.0000
-3.2837 prithibir	-0.0949
-4.0702 prithibite	-0.0628
-4.0702 priti	0.0000
-4.0702 pritrodhe	-0.0628
-3.5847 priyo	-0.0619
-4.0702 priyojoner	-0.0628
-4.0702 probaaho	0.0000
-4.0702 probesh	-0.0625
-4.0702 probeshadhikare	-0.0627
-4.0702 probhu	0.0000
-4.0702 probolvabe	-0.0627
-4.0702 procharona	0.0000
-4.0702 prodane	-0.0628
-4.0702 prodeep	0.0000
-4.0702 prodesh	-0.0628
-4.0702 prodhan	-0.0628
-4.0702 prodip	-0.0618
-4.0702 prodorshon	-0.0608
-4.0702 product	-0.0627
-4.0702 professor	0.0000
-4.0702 program	-0.0625
-4.0702 prohor	-0.0623
-4.0702 prohori	0.0000
-4.0702 proitdin	-0.0628
-4.0702 projapoti	-0.0628
-3.5847 projati	-0.0593
-3.5847 projatir	-0.0622
-3.2837 project	-0.0953
-4.0702 projukti	-0.0628
-4.0702 prokar	-0.0628
-4.0702 prokash	-0.0627
-4.0702 prokashito	-0.0618
-3.5847 prokolper	-0.0620
-4.0702 prokolpo	-0.0627
-4.0702 prokolpogulor	-0.0622
-4.0702 prokriti	-0.0628
-4.0702 prokritir	-0.0626
-4.0702 prokritite	-0.0628
-4.0702 prolep	0.0000
-3.5847 pronoye	-0.0618
-4.0702 propat	0.0000
-3.5847 proshno	-0.0591
-4.0702 proshob	0.0000
-4.0702 proshonge	-0.0628
-4.0702 protarona	-0.0625
-4.0702 prothe	-0.0628
-4.0702 protho	-0.0624
-3.2837 prothom	-0.0619
-3.4086 proti	-0.0621
-4.0702 protibaad	-0.0627
-4.0702 protibelay	0.0000
-4.0702 protibeshe	0.0000
-4.0702 protibhar	-0.0628
-4.0702 protibondho	0.0000
-3.0407 protidin	-0.0543
-4.0702 protidondi	-0.0627
-4.0702 protipokkhoder	-0.0627
-4.0702 protirodh	-0.0624
-4.0702 protirodhe	-0.0628
-3.5847 protishthay	-0.0625
-4.0702 protisthaner	-0.0625
-4.0702 protiti	0.0000
-4.0702 protteke	-0.0628
-4.0702 provab	-0.0628
-4.0702 provate	0.0000
-4.0702 provay	0.0000
-4.0702 proyojone	-0.0628
-4.0702 puira	-0.0627
-4.0702 puji	-0.0627
-4.0702 puloko	0.0000
-4.0702 punjito	0.0000
-4.0702 purcho	-0.0625
-4.0702 puri	-0.0607
-4.0702 puriye	-0.0625
-4.0702 purnibar	0.0000
-4.0702 purnima	-0.0627
-4.0702 purnimay	0.0000
-4.0702 purnota	0.0000
-4.0702 puro	-0.0628
-4.0702 purodin	-0.0628
-4.0702 purono	-0.0627
-4.0702 puroshkar	0.0000
-4.0702 purota	0.0000
-4.0702 purotai	0.0000
-4.0702 purrbpurusher	-0.0628
-4.0702 pushbo	0.0000
-4.0702 pyala	-0.0627
-3.5847 quiz	-0.0594
-3.1868 r	-0.0606
-3.2837 ra	-0.0603
-4.0702 raag	0.0000
-4.0702 raageee	0.0000
-4.0702 raakhar	0.0000
-4.0702 raakhbo	0.0000
-4.0702 raakhe	-0.0627
-4.0702 raakhite	0.0000
-4.0702 raakho	0.0000
-4.0702 raashi	0.0000
-4.0702 raasta	0.0000
-3.1868 raat	-0.0624
-3.5847 raate	-0.0619
-3.5847 raater	-0.0620
-4.0702 raatrir	0.0000
-4.0702 rabby	-0.0610
-3.5847 rag	-0.1326
-4.0702 ragle	-0.0622
-4.0702 rai	-0.0596
-4.0702 rail	0.0000
-4.0702 railliner	0.0000
-4.0702 railpother	-0.0628
-4.0702 raite	-0.0628
-4.0702 raja	-0.0621
-3.4086 rajar	-0.0627
-3.5847 rajdhanir	-0.0627
-4.0702 raji	0.0000
-4.0702 rajkonna	0.0000
-4.0702 rajkumar	-0.0618
-4.0702 rajkumari	0.0000
-4.0702 rajnitibid	-0.0627
-4.0702 rajottey	0.0000
-4.0702 rajshahir	-0.0628
-3.2837 rakha	-0.0614
-3.5847 rakhar	-0.0622
-4.0702 rakhbe	0.0000
-4.0702 rakhbo	0.0000
-4.0702 rakhe	-0.0625
-4.0702 rakhen	0.0000
-4.0702 rakhena	0.0000
-4.0702 rakheni	0.0000
-4.0702 rakhi	0.0000
-4.0702 rakhibo	-0.0628
-4.0702 rakhina	0.0000
-4.0702 rakhite	0.0000
-4.0702 rakhmu	-0.0628
-4.0702 rakho	-0.0627
-3.2837 rakhte	-0.0952
-4.0702 rakhum	-0.0627
-4.0702 ram	-0.0622
-4.0702 ranga	-0.0628
-4.0702 rangaile	0.0000
-4.0702 ranghiye	-0.0590
-4.0702 rangini	0.0000
-4.0702 rangiya	-0.0628
-4.0702 rannai	-0.0623
-4.0702 rasta	-0.0628
-4.0702 rastaghater	-0.0628
-3.1868 rastay	-0.0596
-3.0407 rat	-0.0611
-3.2837 rate	-0.0620
-3.5847 rater	-0.0628
-4.0702 rati	0.0000
-3.4086 ratri	-0.0606
-4.0702 ratrireteo	-0.0620
-4.0702 rchoya	-0.0617
-2.6070 re	-0.0679
-4.0702 ready	0.0000
-4.0702 record	0.0000
-4.0702 reee	0.0000
-4.0702 reiner	-0.0627
-3.4086 rekhe	-0.0586
-4.0702 rekheche	0.0000
-3.5847 rekhechi	-0.1327
-4.0702 rekhechilem	0.0000
-3.5847 rekho	-0.0550
-4.0702 rekhona	-0.0621
-4.0702 relgaari	0.0000
-4.0702 report	-0.0622
-4.0702 reporter	-0.0628
-4.0702 rer	-0.0628
-4.0702 ri	-0.0628
-3.4086 ridoy	-0.0626
-4.0702 ridoye	-0.0628
-4.0702 ridoyer	0.0000
-4.0702 rine	0.0000
-4.0702 rinik	0.0000
-4.0702 riti	-0.0628
-4.0702 ritu	-0.0628
-3.2837 robi	-0.0921
-3.4086 robo	-0.0623
-4.0702 rochiya	-0.0628
-4.0702 rochona	-0.0626
-3.5847 roddur	-0.1327
-4.0702 rodela	-0.0624
-4.0702 rodiyer	0.0000
-4.0702 rodoy	-0.0628
-4.0702 rogir	-0.0627
-4.0702 rohi	-0.0628
-4.0702 roi	-0.0626
-4.0702 roibe	0.0000
-3.5847 roibi	-0.1323
-4.0702 roibo	0.0000
-4.0702 roili	0.0000
-3.5847 roj	-0.0598
-4.0702 rokhha	-0.0626
-4.0702 rokmoi	0.0000
-3.1868 rokom	-0.0614
-3.5847 rokto	-0.0627
-4.0702 romantic	-0.0618
-3.1076 rong	-0.0583
-4.0702 rongdonu	-0.0628
-4.0702 ronge	-0.0622
-3.5847 ronger	-0.0628
-4.0702 rongero	0.0000
-4.0702 rongete	-0.0628
-4.0702 rongke	-0.0624
-4.0702 rongo	-0.0590
-4.0702 ronok	-0.0627
-4.0702 rood	-0.0626
-3.5847 room	-0.0607
-4.0702 roshatole	0.0000
-4.0702 rosher	-0.0628
-4.0702 roshero	0.0000
-4.0702 roshik	-0.0626
-4.0702 rother	-0.0628
-4.0702 roton	-0.0620
-4.0702 rouddur	0.0000
-4.0702 roy	0.0000
-4.0702 royase	0.0000
-3.5847 roye	-0.1324
-3.2837 royeche	-0.0608
-4.0702 royechen	-0.0625
-4.0702 rugider	-0.0628
-4.0702 runu	-0.0628
-4.0702 runujhun	-0.0628
-4.0702 runujhunu	-0.0628
-4.0702 rup	-0.0624
-4.0702 rupe	-0.0603
-4.0702 rupkotha	0.0000
-4.0702 rupkothagulo	0.0000
-4.0702 rupkothar	-0.0628
-3.4086 saat	-0.0607
-4.0702 saathi	-0.0585
-4.0702 sab	-0.0627
-4.0702 sabaar	-0.0628
-4.0702 saday	0.0000
-4.0702 sadharon	-0.0622
-4.0702 sadharonoto	-0.0624
-4.0702 sadhonar	-0.0621
-4.0702 sahetyer	-0.0614
-4.0702 sainmartin	-0.0590
-3.5847 saintmartin	-0.0569
-4.0702 saja	-0.0627
-3.5847 sajabo	-0.0620
-4.0702 sajano	0.0000
-4.0702 sajiye	0.0000
-4.0702 sakhkkhi	-0.0627
-4.0702 samajik	-0.0628
-4.0702 samany	-0.0625
-4.0702 samiran	0.0000
-3.5847 samne	-0.1322
-4.0702 sannidhye	-0.0625
-4.0702 sanyal	-0.0628
-3.1076 sara	-0.0579
-4.0702 saradeshe	-0.0626
-4.0702 sate	-0.0628
-3.0407 sathe	-0.0591
-4.0702 sathebhijbo	0.0000
-4.0702 sayai	0.0000
-4.0702 sayar	0.0000
-3.5847 school	-0.1290
-3.0407 se	-0.0805
-4.0702 seba	-0.0627
-4.0702 segulo	-0.0627
-3.2837 sei	-0.1325
-3.5847 sekhane	-0.0622
-3.5847 seki	-0.1327
-4.0702 sel	-0.0628
-4.0702 sell	0.0000
-3.5847 semester	-0.1294
-4.0702 senior	0.0000
-4.0702 sent	-0.0627
-4.0702 sese	0.0000
-3.2837 sesh	-0.0546
-4.0702 seshe	-0.0623
-4.0702 seta	0.0000
-4.0702 setai	-0.0617
-4.0702 setu	0.0000
-4.0702 setumontri	-0.0628
-4.0702 sey	0.0000
-4.0702 shabdhan	0.0000
-4.0702 shabdhane	-0.0628
-4.0702 shabolil	-0.0625
-4.0702 shada	-0.0626
-4.0702 shadakalo	-0.0628
-4.0702 shadh	-0.0627
-3.2837 shadharon	-0.0620
-3.5847 shadharonoto	-0.0625
-4.0702 shadhdho	-0.0628
-3.5847 shadhin	-0.0610
-3.5847 shafollo	-0.0620
-4.0702 shagor	-0.0618
-4.0702 shagore	-0.0628
-4.0702 shaheb	-0.0628
-4.0702 shajano	0.0000
-4.0702 shajao	-0.0628
-4.0702 shaje	0.0000
-4.0702 shajoge	-0.0628
-4.0702 shal	-0.0590
-4.0702 shala	0.0000
-4.0702 shale	-0.0628
-4.0702 shamannao	-0.0626
-4.0702 shami	-0.0628
-4.0702 shamil	0.0000
-3.4086 shamne	-0.0619
-4.0702 shamodrik	-0.0627
-4.0702 shamogri	-0.0628
-4.0702 shamogrik	0.0000
-4.0702 shamudrik	-0.0627
-4.0702 shanantorito	-0.0620
-4.0702 shankar	-0.0617
-4.0702 shanto	0.0000
-4.0702 shantrira	0.0000
-3.2837 shap	-0.0599
-4.0702 shapero	-0.0628
-4.0702 shapke	-0.0613
-4.0702 shapti	-0.0628
-4.0702 shaptike	-0.0628
-3.2837 shara	-0.0951
-4.0702 sharaa	0.0000
-3.5847 sharadeshe	-0.0626
-4.0702 sharadin	-0.0613
-4.0702 sharater	-0.0628
-4.0702 share	-0.0627
-4.0702 shari	-0.0628
-4.0702 shat	-0.0627
-4.0702 shatar	0.0000
-3.5847 shathe	-0.0624
-4.0702 shavare	-0.0626
-4.0702 shawtangder	0.0000
-4.0702 shaya	-0.0618
-2.7097 she	-0.0714
-4.0702 sheba	-0.0628
-4.0702 shechibo	-0.0628
-4.0702 sheesh	-0.0618
-2.4708 shei	-0.0743
-4.0702 sheisob	-0.0628
-3.2837 sheje	-0.0957
-4.0702 shekh	-0.0628
-3.5847 shekhane	-0.0627
-4.0702 shekherkhola	-0.0628
-4.0702 shere	-0.0624
-3.5847 shes	-0.0594
-3.4086 shesh	-0.0575
-4.0702 shesha	-0.0626
-3.1868 sheshe	-0.0582
-3.4086 sheta	-0.0617
-4.0702 shetanger	-0.0628
-4.0702 sheti	-0.0628
-4.0702 sheto	-0.0628
-4.0702 shey	-0.0628
-4.0702 sheyarer	0.0000
-4.0702 shiddhanto	-0.0628
-4.0702 shidinir	-0.0628
-4.0702 shihorito	0.0000
-3.5847 shikar	-0.0621
-4.0702 shikha	-0.0628
-4.0702 shikhaise	0.0000
-4.0702 shikhhok	-0.0628
-4.0702 shikhiye	0.0000
-4.0702 shikkhakhetre	-0.0608
-4.0702 shikkharthider	-0.0627
-4.0702 shikore	-0.0628
-3.5847 shilpo	-0.0627
-4.0702 shilpobodh	-0.0627
-4.0702 shimaa	0.0000
-4.0702 shimana	0.0000
-4.0702 shimanaae	0.0000
-4.0702 shimanay	-0.0628
-4.0702 shiri	-0.0627
-4.0702 shirt	0.0000
-4.0702 shishi	-0.0628
-4.0702 shishire	-0.0628
-3.2837 shishu	-0.0938
-3.1076 shishuder	-0.0827
-4.0702 shishukaaler	0.0000
-3.4086 shishura	-0.0620
-2.7718 shob	-0.0840
-3.2837 shobai	-0.0611
-3.5847 shobaike	-0.0627
-4.0702 shobar	-0.0628
-4.0702 shobarey	-0.0628
-4.0702 shobchere	-0.0626
-3.1868 shobcheye	-0.0612
-4.0702 shobder	0.0000
-4.0702 shobdotar	-0.0628
-4.0702 shobi	0.0000
-4.0702 shobinoy	0.0000
-3.5847 shobkichu	-0.0622
-4.0702 shobkichui	0.0000
-4.0702 shobuj	-0.0628
-4.0702 shochetanota	-0.0628
-4.0702 shocheten	-0.0625
-4.0702 shocheton	-0.0628
-4.0702 shochetonata	-0.0621
-4.0702 shochiber	-0.0628
-4.0702 shoda	-0.0618
-4.0702 shodor	-0.0628
-4.0702 shodorghat	0.0000
-4.0702 shodossho	-0.0628
-4.0702 shofor	-0.0621
-4.0702 shohager	-0.0627
-3.4086 shohayota	-0.0616
-4.0702 shohingshota,online	-0.0628
-4.0702 shohingshotay	-0.0628
-3.4086 shoho	-0.0616
-4.0702 shohoj	-0.0618
-4.0702 shohoje	-0.0627
-4.0702 shohore	0.0000
-4.0702 shohure	0.0000
-4.0702 shoi	0.0000
-4.0702 shoibo	0.0000
-4.0702 shoishober	-0.0628
-3.5847 shoja	-0.1325
-4.0702 shojjo	-0.0601
-4.0702 shojol	-0.0628
-4.0702 shojolo	-0.0627
-3.5847 shokal	-0.0625
-3.5847 shokale	-0.0618
-4.0702 shokari	-0.0627
-4.0702 shoker	-0.0628
-3.5847 shokol	-0.0628
-4.0702 shokolaghat	-0.0627
-4.0702 shokole	0.0000
-4.0702 sholpo	-0.0628
-4.0702 shomadhite	-0.0622
-4.0702 shomalochona	-0.0621
-4.0702 shomikoron	0.0000
-3.5847 shomman	-0.0600
-4.0702 shommelon	-0.0628
-4.0702 shommukhe	-0.0619
-3.5847 shommukhin	-0.1326
-4.0702 shommukkhin	0.0000
-4.0702 shomonitto	-0.0628
-4.0702 shomossha	-0.0618
-4.0702 shomosshar	-0.0625
-4.0702 shomosshay	-0.0624
-2.7396 shomoy	-0.0766
-4.0702 shompadok	-0.0627
-3.4086 shomporke	-0.0620
-4.0702 shomprosharone	-0.0628
-4.0702 shomproti	-0.0627
-4.0702 shomvabbo	-0.0625
-4.0702 shomvabonay	0.0000
-4.0702 shona	-0.0628
-3.5847 shonali	-0.1327
-3.4086 shonar	-0.1082
-4.0702 shonay	0.0000
-4.0702 shonchito	-0.0626
-4.0702 shondeho	-0.0628
-4.0702 shondesh	0.0000
-4.0702 shondhata	-0.0628
-4.0702 shondhihan	-0.0626
-4.0702 shoney	-0.0627
-3.0407 shonge	-0.0610
-4.0702 shongete	0.0000
-4.0702 shongi	-0.0601
-4.0702 shongkot	-0.0627
-3.5847 shongo	-0.1327
-4.0702 shongothon	-0.0628
-4.0702 shongrihito	-0.0626
-4.0702 shongrohe	-0.0618
-3.5847 shongroho	-0.0614
-4.0702 shongrokkhon	-0.0628
-4.0702 shongrokkhone	-0.0613
-4.0702 shongsthati	-0.0624
-4.0702 shongzOgsthol	-0.0614
-3.5847 shonkha	-0.0627
-4.0702 shonkhaloghu	-0.0627
-3.4086 shonkot	-0.0622
-4.0702 shono	-0.0626
-4.0702 shonshoy	0.0000
-4.0702 shontan	-0.0623
-4.0702 shontoron	0.0000
-4.0702 shontrom	0.0000
-4.0702 shopipo	-0.0628
-3.5847 shopne	-0.0627
-3.1868 shopner	-0.0622
-4.0702 shopneri	-0.0622
-2.9315 shopno	-0.0570
-4.0702 shopon	-0.0599
-4.0702 shopone	0.0000
-4.0702 shopoth	0.0000
-4.0702 shopother	-0.0612
-4.0702 shoptahe	-0.0625
-4.0702 shorashori	-0.0618
-4.0702 shorbe	0.0000
-4.0702 shore	-0.0626
-4.0702 shorge	0.0000
-4.0702 shoriye	-0.0627
-3.5847 shorkar	-0.0627
-4.0702 shorkarer	-0.0628
-4.0702 shorkari	-0.0627
-4.0702 shoro	0.0000
-4.0702 shorolipi	0.0000
-4.0702 shorome	0.0000
-4.0702 shorto	0.0000
-3.5847 shotadhik	-0.0626
-4.0702 shotangho	-0.0626
-4.0702 shotero	-0.0627
-4.0702 shothik	-0.0627
-4.0702 shotkora	0.0000
-4.0702 shoto	-0.0628
-3.5847 shotorko	-0.0600
-3.5847 shotru	-0.1328
-4.0702 shotter	-0.0626
-4.0702 shottey	0.0000
-4.0702 shovaber	0.0000
-4.0702 shovaoti	-0.0608
-4.0702 shovapoti	-0.0628
-4.0702 showes	-0.0628
-4.0702 shoy	0.0000
-4.0702 shresthotto	-0.0627
-4.0702 shrishti	0.0000
-4.0702 shristi	-0.0628
-4.0702 shrobone	-0.0628
-4.0702 shubakankhi	0.0000
-4.0702 shubashe	0.0000
-4.0702 shubho	-0.0628
-4.0702 shuchona	-0.0626
-2.6553 shudhu	-0.0597
-4.0702 shudhui	-0.0627
-4.0702 shudin	-0.0621
-3.2837 shudu	-0.0585
-4.0702 shudur	-0.0618
-3.4086 shujog	-0.1059
-4.0702 shujug	-0.0627
-4.0702 shukeri	-0.0627
-4.0702 shukh	-0.0585
-3.4086 shukhe	-0.0627
-4.0702 shukher	0.0000
-4.0702 shukheri	-0.0628
-4.0702 shukhsriti	-0.0618
-4.0702 shukiye	-0.0621
-4.0702 shukno	0.0000
-4.0702 shuktiro	-0.0624
-4.0702 shuna	0.0000
-4.0702 shunae	0.0000
-4.0702 shunamganj	-0.0627
-4.0702 shunamganjer	-0.0610
-4.0702 shuncho	-0.0599
-3.5847 shundor	-0.0628
-3.1868 shune	-0.0610
-4.0702 shunechhi	-0.0622
-3.5847 shunecho	-0.1299
-4.0702 shuni	0.0000
-4.0702 shunie	-0.0614
-4.0702 shuniye	0.0000
-4.0702 shunne	-0.0624
-3.5847 shunno	-0.0625
-4.0702 shunnotay	0.0000
-3.5847 shunte	-0.0625
-4.0702 shupari	0.0000
-4.0702 shupto	-0.0624
-3.5847 shur	-0.0628
